svm_type c_svc
kernel_type rbf
gamma 0.0078125
nr_class 7
total_sv 1339
rho 0.545279 -0.0057777 0.699059 0.168332 -0.191066 -0.144 -0.580191 0.317183 -0.203467 -0.895304 -0.443551 0.468946 0.242707 0.482659 0.23808 -0.0403076 -0.739167 -0.730375 -0.470212 -0.624412 -0.225893
label 1 2 3 4 5 6 7
nr_sv 158 212 169 242 155 168 235
SV
0 0 0.1943726243747038 0 0 0 1:0.134466 2:-0.611859 3:-0.818248 4:-0.482291 5:-0.666398 6:-0.102549 7:0.477135 8:-0.666898 9:-0.326757 10:-0.489548 11:-0.778793 12:0.840683 13:-0.475484 14:-0.667974 15:0.0123404 16:-0.366382 17:-0.0746246 18:0.597664 19:-0.556826 20:0.667452 21:-0.377997 22:-0.106867 23:-0.585275 24:-0.128119 25:0.936776 26:0.542007 27:0.668018 28:-0.405346 29:-0.256601 30:0.291034 31:-0.132886 32:0.991448 33:0.169542 34:-0.239996 35:-0.912239 36:-0.943687 37:0.931513 38:0.856835 39:-0.443685 40:-0.644067 41:-0.301328 42:-0.556356 43:0.62778 44:0.609976 
0 0 0.5 0 0 0 1:0.135978 2:-0.616751 3:-0.82206 4:-0.476135 5:-0.666696 6:-0.110699 7:0.477138 8:-0.667227 9:-0.328506 10:-0.481479 11:-0.778906 12:0.840833 13:-0.475865 14:-0.668047 15:0.0939498 16:-0.359901 17:-0.0749752 18:0.598029 19:-0.590184 20:0.667632 21:-0.39403 22:-0.0998259 23:-0.585238 24:-0.119009 25:0.936506 26:0.570975 27:0.667918 28:-0.399014 29:-0.257198 30:0.291198 31:-0.124849 32:0.991487 33:0.169542 34:-0.239996 35:-0.912239 36:-0.943687 37:0.931513 38:0.856835 39:-0.443685 40:-0.644067 41:-0.301328 42:-0.556356 43:0.62778 44:0.609976 
0 0 0.5 0 0 0 1:0.135978 2:-0.616751 3:-0.82206 4:-0.476135 5:-0.666696 6:-0.110699 7:0.477138 8:-0.667227 9:-0.328506 10:-0.481479 11:-0.778906 12:0.840833 13:-0.475865 14:-0.668047 15:0.0939498 16:-0.359901 17:-0.0749752 18:0.598029 19:-0.590184 20:0.667632 21:-0.39403 22:-0.0998259 23:-0.585238 24:-0.119009 25:0.936506 26:0.570975 27:0.667918 28:-0.399014 29:-0.257198 30:0.291198 31:-0.124849 32:0.991487 33:0.169542 34:-0.239996 35:-0.912239 36:-0.943687 37:0.931513 38:0.856835 39:-0.443685 40:-0.644067 41:-0.301328 42:-0.556356 43:0.62778 44:0.609976 
0 0 0.5 0.317539661709509 0 0 1:0.144469 2:-0.622075 3:-0.798609 4:-0.477905 5:-0.66778 6:-0.0761111 7:0.477161 8:-0.668508 9:-0.372762 10:-0.482319 11:-0.775285 12:0.856737 13:-0.475711 14:-0.670605 15:-0.0841862 16:-0.36055 17:-0.0625427 18:0.614306 19:-0.54002 20:0.666688 21:-0.341594 22:-0.102324 23:-0.585532 24:-0.106309 25:0.936293 26:0.524151 27:0.665543 28:-0.355805 29:-0.261256 30:0.2905 31:-0.0998606 32:0.991274 33:0.169542 34:-0.239996 35:-0.912239 36:-0.943687 37:0.931513 38:0.856835 39:-0.443685 40:-0.644067 41:-0.301328 42:-0.556356 43:0.62778 44:0.609976 
0 0 0.5 0 0 0 1:0.147976 2:-0.639854 3:-0.81504 4:-0.485186 5:-0.666131 6:-0.101445 7:0.477211 8:-0.666695 9:-0.329672 10:-0.480052 11:-0.780481 12:0.833804 13:-0.475483 14:-0.668167 15:0.020472 16:-0.358622 17:-0.080872 18:0.590475 19:-0.531327 20:0.666148 21:-0.38447 22:-0.110875 23:-0.584901 24:-0.118015 25:0.936908 26:0.518328 27:0.665873 28:-0.402124 29:-0.237881 30:0.291579 31:-0.094482 32:0.989645 33:0.169542 34:-0.239996 35:-0.912239 36:-0.943687 37:0.931513 38:0.856835 39:-0.443685 40:-0.644067 41:-0.301328 42:-0.556356 43:0.62778 44:0.609976 
0 0 0.5 0 0 0 1:0.147991 2:-0.639915 3:-0.815037 4:-0.485186 5:-0.666131 6:-0.101445 7:0.477211 8:-0.666695 9:-0.329672 10:-0.480052 11:-0.780481 12:0.833804 13:-0.475483 14:-0.668167 15:0.020472 16:-0.358622 17:-0.080872 18:0.590475 19:-0.531327 20:0.666148 21:-0.38447 22:-0.110875 23:-0.584901 24:-0.118015 25:0.936908 26:0.518328 27:0.665873 28:-0.402124 29:-0.237881 30:0.291579 31:-0.094482 32:0.989645 33:0.169542 34:-0.239996 35:-0.912239 36:-0.943687 37:0.931513 38:0.856835 39:-0.443685 40:-0.644067 41:-0.301328 42:-0.556356 43:0.62778 44:0.609976 
0 0 0.5 0 0 0 1:0.149684 2:-0.6402 3:-0.81529 4:-0.560745 5:-0.66616 6:-0.109538 7:0.477364 8:-0.666887 9:-0.318143 10:-0.474649 11:-0.780681 12:0.833342 13:-0.474907 14:-0.668291 15:0.0139248 16:-0.354081 17:-0.0815407 18:0.589957 19:-0.479622 20:0.665716 21:-0.399368 22:-0.115891 23:-0.584831 24:-0.129164 25:0.937161 26:0.485586 27:0.66573 28:-0.410726 29:-0.249085 30:0.291524 31:-0.101403 32:0.990698 33:0.169542 34:-0.239996 35:-0.912239 36:-0.943687 37:0.931513 38:0.856835 39:-0.443685 40:-0.644067 41:-0.301328 42:-0.556356 43:0.62778 44:0.609976 
0 0 0.5 0 0 0 1:0.149684 2:-0.6402 3:-0.81529 4:-0.560745 5:-0.66616 6:-0.109538 7:0.477364 8:-0.666887 9:-0.318143 10:-0.474649 11:-0.780681 12:0.833342 13:-0.474907 14:-0.668291 15:0.0139248 16:-0.354081 17:-0.0815407 18:0.589957 19:-0.479622 20:0.665716 21:-0.399368 22:-0.115891 23:-0.584831 24:-0.129164 25:0.937161 26:0.485586 27:0.66573 28:-0.410726 29:-0.249085 30:0.291524 31:-0.101403 32:0.990698 33:0.169542 34:-0.239996 35:-0.912239 36:-0.943687 37:0.931513 38:0.856835 39:-0.443685 40:-0.644067 41:-0.301328 42:-0.556356 43:0.62778 44:0.609976 
0.5 0 0 0 0 0 1:0.153289 2:0.0338072 3:-0.872523 4:-0.487277 5:0.348518 6:-0.0999485 7:0.999811 8:0.348592 9:-0.341122 10:-0.133174 11:-0.793986 12:0.922595 13:-0.996389 14:0.346266 15:0.0267511 16:-0.364919 17:-0.129186 18:0.683692 19:0.198306 20:-0.343333 21:-0.386014 22:-0.304938 23:-0.305061 24:-0.162942 25:0.994153 26:-0.212838 27:-0.339638 28:-0.399814 29:-0.368335 30:0.428357 31:0.255697 32:0.944159 33:0.442503 34:-0.0346071 35:-1 36:-1 37:1 38:1 39:-0.325061 40:-0.559455 41:-0.513633 42:-0.725079 43:0.693577 44:0.754111 
0.5 0 0 0 0 0 1:0.155857 2:0.0293281 3:-0.873988 4:-0.491264 5:0.348497 6:-0.0982235 7:0.999757 8:0.34832 9:-0.337571 10:-0.138107 11:-0.794701 12:0.920194 13:-0.996272 14:0.345762 15:0.0148579 16:-0.368911 17:-0.131814 18:0.681139 19:0.198086 20:-0.343908 21:-0.393347 22:-0.314787 23:-0.305872 24:-0.183584 25:0.993396 26:-0.212492 27:-0.340422 28:-0.411238 29:-0.370532 30:0.427793 31:0.252324 32:0.944815 33:0.442503 34:-0.0346071 35:-1 36:-1 37:1 38:1 39:-0.325061 40:-0.559455 41:-0.513633 42:-0.725079 43:0.693577 44:0.754111 
0.5 0 0 0 0 0 1:0.158822 2:0.0423525 3:-0.872715 4:-0.504299 5:0.348855 6:-0.0607489 7:0.999602 8:0.348034 9:-0.330998 10:-0.134289 11:-0.792787 12:0.928085 13:-0.996022 14:0.344359 15:-0.0590499 16:-0.365672 17:-0.125319 18:0.689234 19:0.198382 20:-0.346146 21:-0.375143 22:-0.303141 23:-0.305958 24:-0.180108 25:0.994049 26:-0.21088 27:-0.343741 28:-0.412173 29:-0.377982 30:0.426228 31:0.250799 32:0.944262 33:0.442503 34:-0.0346071 35:-1 36:-1 37:1 38:1 39:-0.325061 40:-0.559455 41:-0.513633 42:-0.725079 43:0.693577 44:0.754111 
0.5 0 0 0 0 0 1:0.155725 2:0.0433506 3:-0.874735 4:-0.396183 5:0.348013 6:-0.0200819 7:0.999248 8:0.348186 9:-0.353247 10:-0.13162 11:-0.793276 12:0.925534 13:-0.996124 14:0.346006 15:0.0634113 16:-0.363415 17:-0.126599 18:0.686875 19:0.196633 20:-0.342835 21:-0.384449 22:-0.298976 23:-0.305202 24:-0.165775 25:0.99443 26:-0.214102 27:-0.339119 28:-0.37189 29:-0.377171 30:0.427181 31:0.257089 32:0.942651 33:0.442503 34:-0.0346071 35:-1 36:-1 37:1 38:1 39:-0.325061 40:-0.559455 41:-0.513633 42:-0.725079 43:0.693577 44:0.754111 
0.5 0 0 0 0 0 1:0.15311 2:0.0352633 3:-0.87648 4:-0.487598 5:0.34813 6:-0.101915 7:0.999517 8:0.347929 9:-0.319205 10:-0.144295 11:-0.795747 12:0.916484 13:-0.996077 14:0.345316 15:0.00467788 16:-0.37383 17:-0.135904 18:0.67706 19:0.198638 20:-0.344436 21:-0.372166 22:-0.290559 23:-0.305894 24:-0.175907 25:0.994706 26:-0.211415 27:-0.341512 28:-0.41079 29:-0.374605 30:0.426658 31:0.247036 32:0.945727 33:0.442503 34:-0.0346071 35:-1 36:-1 37:1 38:1 39:-0.325061 40:-0.559455 41:-0.513633 42:-0.725079 43:0.693577 44:0.754111 
0.5 0 0 0 0 0 1:0.148136 2:0.0367795 3:-0.882942 4:-0.477872 5:0.347571 6:-0.0869273 7:0.9994 8:0.34717 9:-0.440931 10:-0.138577 11:-0.796374 12:0.913463 13:-0.996212 14:0.344379 15:0.0241705 16:-0.369179 17:-0.13788 18:0.674186 19:0.198107 20:-0.343262 21:-0.391845 22:-0.295328 23:-0.305812 24:-0.178905 25:0.994459 26:-0.212864 27:-0.34003 28:-0.397189 29:-0.355549 30:0.430541 31:0.251866 32:0.946609 33:0.442503 34:-0.0346071 35:-1 36:-1 37:1 38:1 39:-0.325061 40:-0.559455 41:-0.513633 42:-0.725079 43:0.693577 44:0.754111 
0.5 0 0 0 0 0 1:0.159311 2:0.0364958 3:-0.892714 4:-0.477366 5:0.345857 6:-0.375838 7:0.999654 8:0.347308 9:-0.170563 10:-0.155029 11:-0.798128 12:0.907358 13:-0.996321 14:0.346738 15:0.267392 16:-0.382746 17:-0.143465 18:0.668038 19:0.197517 20:-0.337157 21:-0.507466 22:-0.302753 23:-0.305667 24:-0.177176 25:0.99412 26:-0.212658 27:-0.332347 28:-0.514989 29:-0.363198 30:0.428579 31:0.242561 32:0.948304 33:0.442503 34:-0.0346071 35:-1 36:-1 37:1 38:1 39:-0.325061 40:-0.559455 41:-0.513633 42:-0.725079 43:0.693577 44:0.754111 
0.4978127512899793 0 0 0 0 0 1:0.16248 2:0.038796 3:-0.902555 4:-0.482589 5:0.347284 6:-0.0798592 7:0.999799 8:0.346897 9:-0.374577 10:-0.172544 11:-0.797079 12:0.913337 13:-0.996437 14:0.344181 15:-0.000273934 16:-0.397158 17:-0.140366 18:0.673947 19:0.199592 20:-0.343108 21:-0.374459 22:-0.268551 23:-0.308695 24:-0.227284 25:0.994479 26:-0.214903 27:-0.339768 28:-0.388519 29:-0.403703 30:0.42017 31:0.206235 32:0.9516 33:0.442503 34:-0.0346071 35:-1 36:-1 37:1 38:1 39:-0.325061 40:-0.559455 41:-0.513633 42:-0.725079 43:0.693577 44:0.754111 
0.5 0 0 0 -0 0 1:0.15524 2:0.0294245 3:-0.911094 4:-0.480369 5:0.348736 6:-0.0578968 7:0.999695 8:0.348467 9:-0.331316 10:-0.173012 11:-0.803393 12:0.885022 13:-0.996338 14:0.345873 15:0.0148618 16:-0.397488 17:-0.162943 18:0.64421 19:0.201291 20:-0.34404 21:-0.389174 22:-0.259439 23:-0.309073 24:-0.231265 25:0.994664 26:-0.216559 27:-0.340672 28:-0.41081 29:-0.39245 30:0.423467 31:0.238649 32:0.945368 33:0.442503 34:-0.0346071 35:-1 36:-1 37:1 38:1 39:-0.325061 40:-0.559455 41:-0.513633 42:-0.725079 43:0.693577 44:0.754111 
0.5 0 0 0 0 0 1:0.159436 2:0.0257396 3:-0.913944 4:-0.469035 5:0.348448 6:-0.107021 7:0.999736 8:0.348563 9:-0.335521 10:-0.167286 11:-0.801936 12:0.891088 13:-0.996373 14:0.346194 15:0.0252414 16:-0.392818 17:-0.157646 18:0.650612 19:0.20434 20:-0.343436 21:-0.388215 22:-0.25587 23:-0.309015 24:-0.225986 25:0.994934 26:-0.219305 27:-0.339817 28:-0.404284 29:-0.403193 30:0.423628 31:0.280832 32:0.931837 33:0.442503 34:-0.0346071 35:-1 36:-1 37:1 38:1 39:-0.325061 40:-0.559455 41:-0.513633 42:-0.725079 43:0.693577 44:0.754111 
0.5 0 0 0 0.5 0 1:0.153363 2:0.0267749 3:-0.911076 4:-0.485642 5:0.348542 6:-0.100866 7:0.999553 8:0.348377 9:-0.338898 10:-0.169131 11:-0.801094 12:0.895064 13:-0.996148 14:0.345788 15:0.0200723 16:-0.394216 17:-0.154698 18:0.654778 19:0.210321 20:-0.343919 21:-0.388163 22:-0.258675 23:-0.308811 24:-0.22073 25:0.994993 26:-0.224942 27:-0.340474 28:-0.40432 29:-0.40182 30:0.429136 31:0.383487 32:0.898117 33:0.442503 34:-0.0346071 35:-1 36:-1 37:1 38:1 39:-0.325061 40:-0.559455 41:-0.513633 42:-0.725079 43:0.693577 44:0.754111 
0.5 0 0 0 0.1929168209948357 0 1:0.159287 2:0.02943 3:-0.912616 4:-0.485608 5:0.348357 6:-0.100604 7:0.999154 8:0.348413 9:-0.299958 10:-0.170357 11:-0.800768 12:0.896572 13:-0.995799 14:0.346099 15:0.00585901 16:-0.395011 17:-0.153445 18:0.656287 19:0.193346 20:-0.342973 21:-0.379402 22:-0.272731 23:-0.308399 24:-0.219415 25:0.994545 26:-0.208314 27:-0.339271 28:-0.405308 29:-0.405208 30:0.427057 31:0.36049 32:0.905797 33:0.442503 34:-0.0346071 35:-1 36:-1 37:1 38:1 39:-0.325061 40:-0.559455 41:-0.513633 42:-0.725079 43:0.693577 44:0.754111 
0 0 0 0 0.5 0 1:0.159061 2:0.0218879 3:-0.908588 4:-0.487395 5:0.34797 6:-0.115164 7:0.999696 8:0.347878 9:-0.334841 10:-0.157553 11:-0.800688 12:0.896189 13:-0.996284 14:0.345368 15:0.0289847 16:-0.384812 17:-0.153276 18:0.655992 19:0.217578 20:-0.343279 21:-0.391718 22:-0.33306 23:-0.287513 24:-0.215678 25:0.993012 26:-0.231971 27:-0.339797 28:-0.406732 29:-0.401643 30:0.425224 31:0.307661 32:0.92398 33:0.442503 34:-0.0346071 35:-1 36:-1 37:1 38:1 39:-0.325061 40:-0.559455 41:-0.513633 42:-0.725079 43:0.693577 44:0.754111 
0.5 0 0 0 0 0 1:0.140271 2:0.0251597 3:-0.877216 4:-0.498831 5:0.346814 6:0.167892 7:0.999751 8:0.346019 9:-0.440471 10:-0.125085 11:-0.796961 12:0.910075 13:-0.996204 14:0.341946 15:-0.322642 16:-0.35823 17:-0.140424 18:0.669856 19:0.239089 20:-0.343826 21:-0.256303 22:-0.276664 23:-0.303252 24:-0.162082 25:0.9956 26:-0.247165 27:-0.342026 28:-0.313695 29:-0.408042 30:0.433944 31:0.335786 32:0.913734 33:0.442503 34:-0.0346071 35:-1 36:-1 37:1 38:1 39:-0.325061 40:-0.559455 41:-0.513633 42:-0.725079 43:0.693577 44:0.754111 
0.5 0.5 0 0 0 0 1:0.140271 2:0.0251597 3:-0.877216 4:-0.498831 5:0.346814 6:0.167892 7:0.999751 8:0.346019 9:-0.440471 10:-0.125085 11:-0.796961 12:0.910075 13:-0.996204 14:0.341946 15:-0.322642 16:-0.35823 17:-0.140424 18:0.669856 19:0.239089 20:-0.343826 21:-0.256303 22:-0.276664 23:-0.303252 24:-0.162082 25:0.9956 26:-0.212553 27:-0.33893 28:-0.391946 29:-0.380816 30:0.436222 31:0.263266 32:0.940407 33:0.442503 34:-0.0346071 35:-1 36:-1 37:1 38:1 39:-0.325061 40:-0.559455 41:-0.513633 42:-0.725079 43:0.693577 44:0.754111 
0.5 0.2462257425951465 0 0 0 0 1:0.144441 2:0.0317121 3:-0.89559 4:-0.487702 5:0.346913 6:-0.115801 7:0.999708 8:0.345627 9:-0.330865 10:-0.124059 11:-0.800773 12:0.89347 13:-0.996279 14:0.343237 15:0.0399265 16:-0.357397 17:-0.1535 18:0.653124 19:0.197889 20:-0.34068 21:-0.392034 22:-0.297183 23:-0.303079 24:-0.167773 25:0.994666 26:-0.212746 27:-0.337032 28:-0.406134 29:-0.397631 30:0.433069 31:0.260541 32:0.938602 33:0.442503 34:-0.0346071 35:-1 36:-1 37:1 38:1 39:-0.325061 40:-0.559455 41:-0.513633 42:-0.725079 43:0.693577 44:0.754111 
0.5 0 0 0 0 0 1:0.153879 2:0.025105 3:-0.880337 4:-0.463238 5:0.343218 6:-0.294155 7:0.999514 8:0.344211 9:-0.272732 10:-0.129991 11:-0.796851 12:0.911634 13:-0.996326 14:0.343103 15:0.295227 16:-0.362233 17:-0.138827 18:0.672957 19:0.198218 20:-0.333518 21:-0.547049 22:-0.309025 23:-0.302565 24:-0.163128 25:0.994125 26:-0.212994 27:-0.328333 28:-0.51499 29:-0.419187 30:0.429289 31:0.257761 32:0.935402 33:0.442503 34:-0.0346071 35:-1 36:-1 37:1 38:1 39:-0.325061 40:-0.559455 41:-0.513633 42:-0.725079 43:0.693577 44:0.754111 
0.5 0 0 0 0 0 1:0.153879 2:0.025105 3:-0.880337 4:-0.463238 5:0.343218 6:-0.294155 7:0.999514 8:0.344211 9:-0.272732 10:-0.129991 11:-0.796851 12:0.911634 13:-0.996326 14:0.343103 15:0.295227 16:-0.362233 17:-0.138827 18:0.672957 19:0.198218 20:-0.333518 21:-0.547049 22:-0.309025 23:-0.302565 24:-0.163128 25:0.994125 26:-0.212994 27:-0.328333 28:-0.51499 29:-0.419187 30:0.429289 31:0.257761 32:0.935402 33:0.442503 34:-0.0346071 35:-1 36:-1 37:1 38:1 39:-0.325061 40:-0.559455 41:-0.513633 42:-0.725079 43:0.693577 44:0.754111 
0.5 0 0 0 0 0 1:0.144479 2:0.017905 3:-0.886029 4:-0.527642 5:0.347624 6:-0.109286 7:1 8:0.347935 9:-0.343159 10:-0.143385 11:-0.799373 12:0.900661 13:-0.996138 14:0.346088 15:0.0439509 16:-0.373264 17:-0.148306 18:0.660715 19:0.234205 20:-0.341686 21:-0.389022 22:-0.274639 23:-0.304775 24:-0.194989 25:0.995241 26:-0.24557 27:-0.337512 28:-0.398191 29:-0.414126 30:0.439552 31:0.302436 32:0.923258 33:0.442503 34:-0.0346071 35:-1 36:-1 37:1 38:1 39:-0.325061 40:-0.559455 41:-0.513633 42:-0.725079 43:0.693577 44:0.754111 
0.5 0 0 0 0 0 1:0.144479 2:0.017905 3:-0.886029 4:-0.527642 5:0.347624 6:-0.109286 7:1 8:0.347935 9:-0.343159 10:-0.143385 11:-0.799373 12:0.900661 13:-0.996138 14:0.346088 15:0.0439509 16:-0.373264 17:-0.148306 18:0.660715 19:0.234205 20:-0.341686 21:-0.389022 22:-0.274639 23:-0.304775 24:-0.194989 25:0.995241 26:-0.24557 27:-0.337512 28:-0.398191 29:-0.414126 30:0.439552 31:0.302436 32:0.923258 33:0.442503 34:-0.0346071 35:-1 36:-1 37:1 38:1 39:-0.325061 40:-0.559455 41:-0.513633 42:-0.725079 43:0.693577 44:0.754111 
0.5 0 0 0 0 0 1:0.156009 2:0.0167788 3:-0.865747 4:-0.49905 5:0.347373 6:-0.00491094 7:0.999832 8:0.346779 9:-0.384175 10:-0.142324 11:-0.800437 12:0.896059 13:-0.996355 14:0.344131 15:-0.0205903 16:-0.375646 17:-0.13067 18:0.683891 19:0.198012 20:-0.342881 21:-0.370789 22:-0.299913 23:-0.304184 24:-0.18388 25:0.994305 26:-0.212733 27:-0.339469 28:-0.388476 29:-0.423651 30:0.435495 31:0.242876 32:0.938504 33:0.442503 34:-0.0346071 35:-1 36:-1 37:1 38:1 39:-0.325061 40:-0.559455 41:-0.513633 42:-0.725079 43:0.693577 44:0.754111 
0.5 0 0 0 0 0 1:0.149258 2:0.0295727 3:-0.888867 4:-0.48287 5:0.347897 6:-0.133004 7:0.999699 8:0.348144 9:-0.339997 10:-0.142328 11:-0.800389 12:0.896014 13:-0.996314 14:0.34594 15:0.0712637 16:-0.372361 17:-0.152062 18:0.655902 19:0.198007 20:-0.342226 21:-0.406542 22:-0.282013 23:-0.304431 24:-0.185751 25:0.995092 26:-0.211806 27:-0.338436 28:-0.410906 29:-0.418704 30:0.436596 31:0.245396 32:0.938839 33:0.442503 34:-0.0346071 35:-1 36:-1 37:1 38:1 39:-0.325061 40:-0.559455 41:-0.513633 42:-0.725079 43:0.693577 44:0.754111 
0.5 0 0 0 0 0 1:0.145764 2:0.0216871 3:-0.884372 4:-0.497268 5:0.347508 6:-0.110705 7:0.999639 8:0.347761 9:-0.309166 10:-0.149117 11:-0.798747 12:0.904027 13:-0.996056 14:0.345422 15:0.0177862 16:-0.37783 17:-0.146232 18:0.664149 19:0.198327 20:-0.34204 21:-0.386501 22:-0.286571 23:-0.304402 24:-0.184435 25:0.994911 26:-0.210788 27:-0.338266 28:-0.409204 29:-0.424973 30:0.434441 31:0.230409 32:0.941495 33:0.442503 34:-0.0346071 35:-1 36:-1 37:1 38:1 39:-0.325061 40:-0.559455 41:-0.513633 42:-0.725079 43:0.693577 44:0.754111 
0.5 0 0 0 0 0 1:0.145764 2:0.0216871 3:-0.884372 4:-0.497268 5:0.347508 6:-0.110705 7:0.999639 8:0.347761 9:-0.309166 10:-0.149117 11:-0.798747 12:0.904027 13:-0.996056 14:0.345422 15:0.0177862 16:-0.37783 17:-0.146232 18:0.664149 19:0.198327 20:-0.34204 21:-0.386501 22:-0.286571 23:-0.304402 24:-0.184435 25:0.994911 26:-0.210788 27:-0.338266 28:-0.409204 29:-0.424973 30:0.434441 31:0.230409 32:0.941495 33:0.442503 34:-0.0346071 35:-1 36:-1 37:1 38:1 39:-0.325061 40:-0.559455 41:-0.513633 42:-0.725079 43:0.693577 44:0.754111 
0 0 0.5 0 0.5 0 1:0.209245 2:-0.809261 3:-0.521053 4:-0.488401 5:-0.696996 6:-0.105833 7:0.28776 8:-0.697839 9:-0.325884 10:-0.58052 11:-0.790004 12:0.781666 13:-0.286593 14:-0.699593 15:0.0269972 16:-0.335629 17:-0.115043 18:0.535766 19:-0.540493 20:0.696296 21:-0.383188 22:-0.459095 23:-0.0213752 24:-0.247808 25:0.962858 26:0.528567 27:0.695573 28:-0.400298 29:-0.573148 30:0.829321 31:-0.26797 32:0.854416 33:0.165068 34:-0.239552 35:-0.922622 36:-0.96002 37:0.879093 38:0.782687 39:-0.367797 40:-0.579319 41:-0.326356 42:-0.605271 43:0.57719 44:0.535353 
0 0 0.5 0 0.5 0 1:0.215292 2:-0.788113 3:-0.519884 4:-0.480318 5:-0.697149 6:-0.108778 7:0.287722 8:-0.697802 9:-0.339027 10:-0.580992 11:-0.79007 12:0.781236 13:-0.286632 14:-0.699205 15:0.0327474 16:-0.336016 17:-0.115165 18:0.535339 19:-0.541281 20:0.696835 21:-0.39144 22:-0.458637 23:-0.0193619 24:-0.248482 25:0.962485 26:0.527589 27:0.696489 28:-0.405164 29:-0.572703 30:0.833279 31:-0.268913 32:0.852962 33:0.165068 34:-0.239552 35:-0.922622 36:-0.96002 37:0.879093 38:0.782687 39:-0.367797 40:-0.579319 41:-0.326356 42:-0.605271 43:0.57719 44:0.535353 
0 0 0.5 0 0.388287727815058 0 1:0.212279 2:-0.799232 3:-0.516292 4:-0.488162 5:-0.697205 6:-0.10643 7:0.28771 8:-0.697752 9:-0.328376 10:-0.577414 11:-0.789341 12:0.785175 13:-0.286562 14:-0.699196 15:0.0263353 16:-0.333064 17:-0.112574 18:0.539449 19:-0.540785 20:0.697118 21:-0.387191 22:-0.46154 23:-0.0209064 24:-0.246851 25:0.962519 26:0.528365 27:0.696711 28:-0.404134 29:-0.575521 30:0.830242 31:-0.26663 32:0.853096 33:0.165068 34:-0.239552 35:-0.922622 36:-0.96002 37:0.879093 38:0.782687 39:-0.367797 40:-0.579319 41:-0.326356 42:-0.605271 43:0.57719 44:0.535353 
0 0 0.5 0 0 0 1:0.214227 2:-0.811467 3:-0.51674 4:-0.483165 5:-0.697173 6:-0.0978903 7:0.287632 8:-0.698014 9:-0.340077 10:-0.574594 11:-0.788366 12:0.790352 13:-0.286541 14:-0.699853 15:0.0198331 16:-0.330728 17:-0.109215 18:0.54488 19:-0.54063 20:0.696459 21:-0.383162 22:-0.46494 23:-0.0191655 24:-0.246553 25:0.961788 26:0.528843 27:0.695602 28:-0.398873 29:-0.578823 30:0.833665 31:-0.266213 32:0.850251 33:0.165068 34:-0.239552 35:-0.922622 36:-0.96002 37:0.879093 38:0.782687 39:-0.367797 40:-0.579319 41:-0.326356 42:-0.605271 43:0.57719 44:0.535353 
0 0 0.5 0 0.5 0 1:0.219582 2:-0.804944 3:-0.516269 4:-0.546979 5:-0.697546 6:-0.133218 7:0.287659 8:-0.697544 9:-0.290558 10:-0.582799 11:-0.789486 12:0.783815 13:-0.286245 14:-0.698749 15:0.019538 16:-0.337374 17:-0.113026 18:0.537973 19:-0.540935 20:0.697556 21:-0.383995 22:-0.460037 23:-0.0183594 24:-0.249898 25:0.962073 26:0.528801 27:0.697357 28:-0.405391 29:-0.574062 30:0.83525 31:-0.270896 32:0.851358 33:0.165068 34:-0.239552 35:-0.922622 36:-0.96002 37:0.879093 38:0.782687 39:-0.367797 40:-0.579319 41:-0.326356 42:-0.605271 43:0.57719 44:0.535353 
0 0 0.5 0 0 0 1:0.215228 2:-0.812257 3:-0.523749 4:-0.48362 5:-0.697236 6:-0.0955393 7:0.28752 8:-0.698016 9:-0.33631 10:-0.572009 11:-0.78896 12:0.787713 13:-0.286417 14:-0.699728 15:0.014619 16:-0.328549 17:-0.111405 18:0.542068 19:-0.540811 20:0.696127 21:-0.370966 22:-0.463059 23:-0.0139777 24:-0.246305 25:0.960959 26:0.529147 27:0.694965 28:-0.39099 29:-0.576997 30:0.843864 31:-0.265866 32:0.847024 33:0.165068 34:-0.239552 35:-0.922622 36:-0.96002 37:0.879093 38:0.782687 39:-0.367797 40:-0.579319 41:-0.326356 42:-0.605271 43:0.57719 44:0.535353 
0 0.5 0.5 0 0.5 0 1:0.216409 2:-0.79529 3:-0.51954 4:-0.491877 5:-0.697109 6:-0.103763 7:0.287385 8:-0.697758 9:-0.32553 10:-0.572594 11:-0.791025 12:0.777357 13:-0.286146 14:-0.699361 15:0.0171795 16:-0.328913 17:-0.11865 18:0.531221 19:-0.540795 20:0.696827 21:-0.386485 22:-0.456134 23:-0.010437 24:-0.246173 25:0.961019 26:0.529753 27:0.69623 28:-0.406693 29:-0.570273 30:0.850825 31:-0.265681 32:0.847256 33:0.165068 34:-0.239552 35:-0.922622 36:-0.96002 37:0.879093 38:0.782687 39:-0.367797 40:-0.579319 41:-0.326356 42:-0.605271 43:0.57719 44:0.535353 
0 0.5 0.5 0 0.5 0 1:0.211012 2:-0.798881 3:-0.512898 4:-0.432287 5:-0.697077 6:-0.126185 7:0.286978 8:-0.697887 9:-0.411721 10:-0.571688 11:-0.790292 12:0.781073 13:-0.286307 14:-0.699841 15:0.175334 16:-0.328102 17:-0.116152 18:0.535617 19:-0.542738 20:0.696444 21:-0.417691 22:-0.458348 23:-0.00638142 24:-0.247155 25:0.959876 26:0.528523 27:0.695532 28:-0.373429 29:-0.572423 30:0.858798 31:-0.267055 32:0.842805 33:0.165068 34:-0.239552 35:-0.922622 36:-0.96002 37:0.879093 38:0.782687 39:-0.367797 40:-0.579319 41:-0.326356 42:-0.605271 43:0.57719 44:0.535353 
0 0 0.5 0 0.5 0 1:0.216484 2:-0.799534 3:-0.509186 4:-0.489532 5:-0.697386 6:-0.102449 7:0.287582 8:-0.697989 9:-0.326265 10:-0.586489 11:-0.789941 12:0.781363 13:-0.286408 14:-0.6993 15:0.0162152 16:-0.340415 17:-0.114667 18:0.535423 19:-0.541613 20:0.697207 21:-0.390012 22:-0.458158 23:-0.0177279 24:-0.251512 25:0.9621 26:0.527835 27:0.697019 28:-0.410047 29:-0.572238 30:0.836491 31:-0.273154 32:0.851466 33:0.165068 34:-0.239552 35:-0.922622 36:-0.96002 37:0.879093 38:0.782687 39:-0.367797 40:-0.579319 41:-0.326356 42:-0.605271 43:0.57719 44:0.535353 
0 0 0.5 0 0 0 1:0.214092 2:-0.798246 3:-0.508342 4:-0.477769 5:-0.697238 6:-0.10073 7:0.287617 8:-0.6979 9:-0.334788 10:-0.569867 11:-0.788704 12:0.789094 13:-0.286589 14:-0.69938 15:0.022021 16:-0.326896 17:-0.110279 18:0.54355 19:-0.542654 20:0.696834 21:-0.378445 22:-0.464099 23:-0.0138719 24:-0.245493 25:0.960845 26:0.525776 27:0.696673 28:-0.395809 29:-0.578006 30:0.844072 31:-0.264729 32:0.84658 33:0.165068 34:-0.239552 35:-0.922622 36:-0.96002 37:0.879093 38:0.782687 39:-0.367797 40:-0.579319 41:-0.326356 42:-0.605271 43:0.57719 44:0.535353 
0 0 0.5 0 0.5 0 1:0.215257 2:-0.808594 3:-0.510501 4:-0.488295 5:-0.697388 6:-0.105986 7:0.287544 8:-0.697973 9:-0.340433 10:-0.562643 11:-0.789545 12:0.785654 13:-0.28638 14:-0.699401 15:0.0382836 16:-0.320865 17:-0.113245 18:0.54002 19:-0.541354 20:0.697496 21:-0.406823 22:-0.46242 23:-0.013019 24:-0.241828 25:0.960987 26:0.528279 27:0.697496 28:-0.413877 29:-0.576376 30:0.845749 31:-0.259599 32:0.847132 33:0.165068 34:-0.239552 35:-0.922622 36:-0.96002 37:0.879093 38:0.782687 39:-0.367797 40:-0.579319 41:-0.326356 42:-0.605271 43:0.57719 44:0.535353 
0 0 0.5 0 0 0 1:0.212883 2:-0.819867 3:-0.506368 4:-0.484497 5:-0.697205 6:-0.0998914 7:0.287538 8:-0.69791 9:-0.353235 10:-0.563577 11:-0.787335 12:0.796247 13:-0.286427 14:-0.699407 15:0.0364277 16:-0.321652 17:-0.105409 18:0.551151 19:-0.542109 20:0.696549 21:-0.37947 22:-0.46954 23:-0.0187299 24:-0.242095 25:0.961313 26:0.527089 27:0.696282 28:-0.375534 29:-0.58329 30:0.834521 31:-0.259972 32:0.848402 33:0.165068 34:-0.239552 35:-0.922622 36:-0.96002 37:0.879093 38:0.782687 39:-0.367797 40:-0.579319 41:-0.326356 42:-0.605271 43:0.57719 44:0.535353 
0 0 0.5 0 0 0 1:0.214845 2:-0.814568 3:-0.511124 4:-0.481121 5:-0.697116 6:-0.099261 7:0.287566 8:-0.697358 9:-0.397542 10:-0.564478 11:-0.78907 12:0.787517 13:-0.28688 14:-0.698377 15:0.0223149 16:-0.322523 17:-0.111466 18:0.541954 19:-0.542533 20:0.697368 21:-0.390288 22:-0.464422 23:-0.0258861 24:-0.239653 25:0.963407 26:0.526191 27:0.697266 28:-0.402346 29:-0.578321 30:0.820453 31:-0.256553 32:0.856554 33:0.165068 34:-0.239552 35:-0.922622 36:-0.96002 37:0.879093 38:0.782687 39:-0.367797 40:-0.579319 41:-0.326356 42:-0.605271 43:0.57719 44:0.535353 
0 0 0.5 0 0 0 1:0.210698 2:-0.809981 3:-0.518647 4:-0.486903 5:-0.697158 6:-0.0984925 7:0.287781 8:-0.697839 9:-0.340732 10:-0.560639 11:-0.789248 12:0.787221 13:-0.286638 14:-0.69936 15:0.0200582 16:-0.319372 17:-0.112262 18:0.541597 19:-0.540832 20:0.696803 21:-0.382697 22:-0.464566 23:-0.0269794 24:-0.237534 25:0.96367 26:0.527984 27:0.696346 28:-0.398375 29:-0.57846 30:0.818303 31:-0.253588 32:0.857576 33:0.165068 34:-0.239552 35:-0.922622 36:-0.96002 37:0.879093 38:0.782687 39:-0.367797 40:-0.579319 41:-0.326356 42:-0.605271 43:0.57719 44:0.535353 
0 0 0.5 0 0.5 0 1:0.208825 2:-0.80306 3:-0.520501 4:-0.565427 5:-0.697281 6:-0.186889 7:0.287898 8:-0.697589 9:-0.281736 10:-0.556149 11:-0.790778 12:0.77995 13:-0.286147 14:-0.698663 15:0.0737735 16:-0.315595 17:-0.1176 18:0.53401 19:-0.538558 20:0.697815 21:-0.394035 22:-0.460186 23:-0.026829 24:-0.234618 25:0.964235 26:0.531312 27:0.697821 28:-0.417958 29:-0.574207 30:0.818599 31:-0.249506 32:0.859777 33:0.165068 34:-0.239552 35:-0.922622 36:-0.96002 37:0.879093 38:0.782687 39:-0.367797 40:-0.579319 41:-0.326356 42:-0.605271 43:0.57719 44:0.535353 
0 0 0.5 0 0 0 1:0.211041 2:-0.808204 3:-0.517151 4:-0.485813 5:-0.697093 6:-0.101861 7:0.28774 8:-0.697777 9:-0.334454 10:-0.55494 11:-0.789825 12:0.784838 13:-0.286617 14:-0.699417 15:0.0224699 16:-0.31469 17:-0.11437 18:0.539093 19:-0.540545 20:0.696719 21:-0.382324 22:-0.463401 23:-0.0260587 24:-0.234761 25:0.963713 26:0.528537 27:0.696077 28:-0.398958 29:-0.577329 30:0.820113 31:-0.249706 32:0.857743 33:0.165068 34:-0.239552 35:-0.922622 36:-0.96002 37:0.879093 38:0.782687 39:-0.367797 40:-0.579319 41:-0.326356 42:-0.605271 43:0.57719 44:0.535353 
0 0 0.5 0 0.5 0 1:0.208284 2:-0.791397 3:-0.513086 4:-0.480011 5:-0.697083 6:-0.0979291 7:0.28772 8:-0.697723 9:-0.339255 10:-0.55812 11:-0.790848 12:0.779369 13:-0.286929 14:-0.699276 15:0.0118947 16:-0.317297 17:-0.118037 18:0.533427 19:-0.541395 20:0.696928 21:-0.395678 22:-0.459595 23:-0.0240229 24:-0.236122 25:0.963711 26:0.527583 27:0.696323 28:-0.404797 29:-0.573633 30:0.824115 31:-0.251611 32:0.857735 33:0.165068 34:-0.239552 35:-0.922622 36:-0.96002 37:0.879093 38:0.782687 39:-0.367797 40:-0.579319 41:-0.326356 42:-0.605271 43:0.57719 44:0.535353 
0 0 0.5 0 0.5 0 1:0.21122 2:-0.8007 3:-0.515063 4:-0.488093 5:-0.697229 6:-0.108856 7:0.287703 8:-0.697688 9:-0.320783 10:-0.561201 11:-0.790872 12:0.779105 13:-0.286535 14:-0.699031 15:0.0311749 16:-0.319783 17:-0.118016 18:0.533083 19:-0.540928 20:0.697321 21:-0.389206 22:-0.459225 23:-0.025512 24:-0.237223 25:0.964009 26:0.528232 27:0.697028 28:-0.405978 29:-0.573274 30:0.821188 31:-0.253152 32:0.858897 33:0.165068 34:-0.239552 35:-0.922622 36:-0.96002 37:0.879093 38:0.782687 39:-0.367797 40:-0.579319 41:-0.326356 42:-0.605271 43:0.57719 44:0.535353 
0 0 0.5 0 0 0 1:0.208338 2:-0.806526 3:-0.517833 4:-0.486111 5:-0.697037 6:-0.104177 7:0.28761 8:-0.697841 9:-0.329332 10:-0.556119 11:-0.789256 12:0.787574 13:-0.286476 14:-0.699385 15:0.0248173 16:-0.31558 17:-0.112295 18:0.541966 19:-0.541354 20:0.696464 21:-0.385175 22:-0.464956 23:-0.024495 24:-0.23602 25:0.96319 26:0.528017 27:0.696002 28:-0.401921 29:-0.578839 30:0.823187 31:-0.251469 32:0.855706 33:0.165068 34:-0.239552 35:-0.922622 36:-0.96002 37:0.879093 38:0.782687 39:-0.367797 40:-0.579319 41:-0.326356 42:-0.605271 43:0.57719 44:0.535353 
0 0 0.5 0 0 0 1:0.207459 2:-0.807442 3:-0.51536 4:-0.483844 5:-0.697054 6:-0.102416 7:0.287457 8:-0.69774 9:-0.344006 10:-0.54807 11:-0.789272 12:0.788022 13:-0.28636 14:-0.699304 15:0.0321635 16:-0.308916 17:-0.112362 18:0.542468 19:-0.541358 20:0.696699 21:-0.384334 22:-0.465804 23:-0.0235757 24:-0.232436 25:0.96302 26:0.528603 27:0.696175 28:-0.397028 29:-0.579662 30:0.824995 31:-0.246452 32:0.855044 33:0.165068 34:-0.239552 35:-0.922622 36:-0.96002 37:0.879093 38:0.782687 39:-0.367797 40:-0.579319 41:-0.326356 42:-0.605271 43:0.57719 44:0.535353 
0 0 0.5 0 0.5 0 1:0.207581 2:-0.804779 3:-0.512089 4:-0.490866 5:-0.697089 6:-0.100515 7:0.287302 8:-0.697573 9:-0.32847 10:-0.551772 11:-0.790253 12:0.782872 13:-0.286087 14:-0.699104 15:0.0150089 16:-0.311828 17:-0.115871 18:0.537008 19:-0.540994 20:0.697123 21:-0.385426 22:-0.462478 23:-0.0274024 24:-0.232608 25:0.964144 26:0.529906 27:0.696581 28:-0.404246 29:-0.576433 30:0.817472 31:-0.246692 32:0.859421 33:0.165068 34:-0.239552 35:-0.922622 36:-0.96002 37:0.879093 38:0.782687 39:-0.367797 40:-0.579319 41:-0.326356 42:-0.605271 43:0.57719 44:0.535353 
0 0 0.5 0 0.5 0 1:0.214763 2:-0.805794 3:-0.517078 4:-0.487997 5:-0.696974 6:-0.103761 7:0.286921 8:-0.697843 9:-0.290826 10:-0.554815 11:-0.790143 12:0.783384 13:-0.285749 14:-0.699594 15:-0.000792191 16:-0.314119 17:-0.115543 18:0.537475 19:-0.541931 20:0.696291 21:-0.381559 22:-0.462304 23:-0.0234928 24:-0.235048 25:0.96333 26:0.530204 27:0.695564 28:-0.40905 29:-0.576264 30:0.825158 31:-0.250108 32:0.856252 33:0.165068 34:-0.239552 35:-0.922622 36:-0.96002 37:0.879093 38:0.782687 39:-0.367797 40:-0.579319 41:-0.326356 42:-0.605271 43:0.57719 44:0.535353 
0.4935210727279256 0 0.5 0 0.5 0 1:0.218513 2:-0.802779 3:-0.515273 4:-0.480988 5:-0.697038 6:-0.101872 7:0.287588 8:-0.697621 9:-0.343558 10:-0.544058 11:-0.789446 12:0.787371 13:-0.286529 14:-0.699087 15:0.0307945 16:-0.305715 17:-0.112956 18:0.541781 19:-0.541248 20:0.696898 21:-0.388649 22:-0.464819 23:-0.0102696 24:-0.233879 25:0.960388 26:0.528135 27:0.696473 28:-0.40153 29:-0.578706 30:0.851154 31:-0.248471 32:0.844802 33:0.165068 34:-0.239552 35:-0.922622 36:-0.96002 37:0.879093 38:0.782687 39:-0.367797 40:-0.579319 41:-0.326356 42:-0.605271 43:0.57719 44:0.535353 
0 0 0.5 0 0 0 1:0.2235 2:-0.803795 3:-0.514314 4:-0.486913 5:-0.697055 6:-0.105003 7:0.28756 8:-0.697659 9:-0.345459 10:-0.546818 11:-0.789173 12:0.788539 13:-0.286409 14:-0.699108 15:0.0408601 16:-0.307934 17:-0.111972 18:0.543031 19:-0.541238 20:0.696863 21:-0.388573 22:-0.465602 23:-0.0141103 24:-0.234351 25:0.961081 26:0.528404 27:0.696469 28:-0.399347 29:-0.579466 30:0.843603 31:-0.249133 32:0.847499 33:0.165068 34:-0.239552 35:-0.922622 36:-0.96002 37:0.879093 38:0.782687 39:-0.367797 40:-0.579319 41:-0.326356 42:-0.605271 43:0.57719 44:0.535353 
0 0 0.5 0 0 0 1:0.213476 2:-0.799235 3:-0.51565 4:-0.484951 5:-0.697037 6:-0.103853 7:0.287595 8:-0.697795 9:-0.316641 10:-0.549052 11:-0.788895 12:0.78984 13:-0.28648 14:-0.699327 15:0.0148158 16:-0.309792 17:-0.111 18:0.544309 19:-0.541358 20:0.696546 21:-0.384275 22:-0.466624 23:-0.019857 24:-0.234097 25:0.962137 26:0.52804 27:0.696091 28:-0.405151 29:-0.580459 30:0.832305 31:-0.248777 32:0.851607 33:0.165068 34:-0.239552 35:-0.922622 36:-0.96002 37:0.879093 38:0.782687 39:-0.367797 40:-0.579319 41:-0.326356 42:-0.605271 43:0.57719 44:0.535353 
0 0 0.5 0 0 0 1:0.217029 2:-0.803835 3:-0.510786 4:-0.484391 5:-0.697071 6:-0.101453 7:0.287739 8:-0.697612 9:-0.337505 10:-0.536672 11:-0.788565 12:0.792089 13:-0.286632 14:-0.699119 15:0.0246815 16:-0.299739 17:-0.109818 18:0.546712 19:-0.540718 20:0.696974 21:-0.387197 22:-0.468681 23:-0.0143044 24:-0.229919 25:0.960892 26:0.528271 27:0.696493 28:-0.40264 29:-0.582456 30:0.843221 31:-0.242927 32:0.846761 33:0.165068 34:-0.239552 35:-0.922622 36:-0.96002 37:0.879093 38:0.782687 39:-0.367797 40:-0.579319 41:-0.326356 42:-0.605271 43:0.57719 44:0.535353 
0 0 0.5 0 0 0 1:0.213627 2:-0.808128 3:-0.506316 4:-0.489677 5:-0.697096 6:-0.102204 7:0.287705 8:-0.697811 9:-0.338891 10:-0.538265 11:-0.788382 12:0.792984 13:-0.286536 14:-0.699348 15:0.0275549 16:-0.301007 17:-0.109167 18:0.54766 19:-0.540972 20:0.696667 21:-0.388673 22:-0.469135 23:-0.0144305 24:-0.230752 25:0.96084 26:0.52815 27:0.696209 28:-0.40314 29:-0.582897 30:0.842973 31:-0.244094 32:0.84656 33:0.165068 34:-0.239552 35:-0.922622 36:-0.96002 37:0.879093 38:0.782687 39:-0.367797 40:-0.579319 41:-0.326356 42:-0.605271 43:0.57719 44:0.535353 
0 0 0.5 0 0 0 1:0.213179 2:-0.795999 3:-0.503403 4:-0.467954 5:-0.697088 6:-0.0978996 7:0.287616 8:-0.697834 9:-0.342129 10:-0.53436 11:-0.787889 12:0.795577 13:-0.286581 14:-0.699443 15:0.033275 16:-0.2978 17:-0.107426 18:0.5504 19:-0.541446 20:0.696648 21:-0.384129 22:-0.471224 23:-0.0162507 24:-0.22871 25:0.961024 26:0.527764 27:0.696143 28:-0.395272 29:-0.584926 30:0.839395 31:-0.241236 32:0.847276 33:0.165068 34:-0.239552 35:-0.922622 36:-0.96002 37:0.879093 38:0.782687 39:-0.367797 40:-0.579319 41:-0.326356 42:-0.605271 43:0.57719 44:0.535353 
0 0 0.5 0 0 0 1:0.210857 2:-0.785233 3:-0.510104 4:-0.482392 5:-0.69716 6:-0.107629 7:0.287727 8:-0.697698 9:-0.330887 10:-0.536386 11:-0.789274 12:0.78871 13:-0.286644 14:-0.699143 15:0.0349536 16:-0.299506 17:-0.112333 18:0.543182 19:-0.540898 20:0.697107 21:-0.386775 22:-0.466997 23:-0.021609 24:-0.227482 25:0.962635 26:0.528054 27:0.696695 28:-0.401137 29:-0.58082 30:0.828861 31:-0.239516 32:0.853546 33:0.165068 34:-0.239552 35:-0.922622 36:-0.96002 37:0.879093 38:0.782687 39:-0.367797 40:-0.579319 41:-0.326356 42:-0.605271 43:0.57719 44:0.535353 
0 0 0.5 0 0 0 1:0.207665 2:-0.802703 3:-0.515031 4:-0.483016 5:-0.697306 6:-0.109543 7:0.287694 8:-0.697675 9:-0.329741 10:-0.537865 11:-0.788551 12:0.792097 13:-0.286609 14:-0.698951 15:0.0378208 16:-0.300697 17:-0.109698 18:0.546742 19:-0.541045 20:0.697587 21:-0.390779 22:-0.469159 23:-0.0233755 24:-0.228123 25:0.962712 26:0.527998 27:0.697333 28:-0.404814 29:-0.58292 30:0.825388 31:-0.240414 32:0.853846 33:0.165068 34:-0.239552 35:-0.922622 36:-0.96002 37:0.879093 38:0.782687 39:-0.367797 40:-0.579319 41:-0.326356 42:-0.605271 43:0.57719 44:0.535353 
0 0 0.5 0 0 0 1:0.213364 2:-0.821871 3:-0.51643 4:-0.481774 5:-0.697109 6:-0.0990442 7:0.28763 8:-0.697918 9:-0.346593 10:-0.537709 11:-0.786775 12:0.800741 13:-0.286565 14:-0.699545 15:0.0252419 16:-0.300539 17:-0.103445 18:0.555803 19:-0.541231 20:0.696511 21:-0.38378 22:-0.474847 23:-0.0254415 24:-0.228505 25:0.962428 26:0.52799 27:0.695941 28:-0.39751 29:-0.588443 30:0.821327 31:-0.240948 32:0.852743 33:0.165068 34:-0.239552 35:-0.922622 36:-0.96002 37:0.879093 38:0.782687 39:-0.367797 40:-0.579319 41:-0.326356 42:-0.605271 43:0.57719 44:0.535353 
0 0 0.5 0 0 0 1:0.211452 2:-0.815755 3:-0.509867 4:-0.488334 5:-0.697154 6:-0.0988032 7:0.287571 8:-0.697806 9:-0.345683 10:-0.537411 11:-0.788064 12:0.794545 13:-0.286391 14:-0.699425 15:0.0216427 16:-0.300227 17:-0.108072 18:0.549288 19:-0.540607 20:0.696862 21:-0.383169 22:-0.471035 23:-0.0276355 24:-0.227062 25:0.963348 26:0.529224 27:0.69623 28:-0.398143 29:-0.584742 30:0.817013 31:-0.238928 32:0.856325 33:0.165068 34:-0.239552 35:-0.922622 36:-0.96002 37:0.879093 38:0.782687 39:-0.367797 40:-0.579319 41:-0.326356 42:-0.605271 43:0.57719 44:0.535353 
0 0 0.5 0 0 0 1:0.206909 2:-0.811748 3:-0.514629 4:-0.495297 5:-0.697247 6:-0.113368 7:0.287358 8:-0.697723 9:-0.310098 10:-0.542477 11:-0.789029 12:0.789569 13:-0.286104 14:-0.699239 15:0.0273494 16:-0.304239 17:-0.111489 18:0.544043 19:-0.540578 20:0.697361 21:-0.382531 22:-0.467478 23:-0.0280212 24:-0.228779 25:0.963794 26:0.530293 27:0.696794 28:-0.402911 29:-0.581288 30:0.816255 31:-0.241332 32:0.858057 33:0.165068 34:-0.239552 35:-0.922622 36:-0.96002 37:0.879093 38:0.782687 39:-0.367797 40:-0.579319 41:-0.326356 42:-0.605271 43:0.57719 44:0.535353 
0 0 0.5 0 0 0 1:0.209756 2:-0.822176 3:-0.515844 4:-0.485113 5:-0.697069 6:-0.0983608 7:0.287283 8:-0.697727 9:-0.332743 10:-0.547015 11:-0.78794 12:0.794538 13:-0.286165 14:-0.699331 15:0.0146991 16:-0.30795 17:-0.107616 18:0.549255 19:-0.541409 20:0.69677 21:-0.386572 22:-0.469913 23:-0.0215007 24:-0.233207 25:0.962105 26:0.529309 27:0.696176 28:-0.405147 29:-0.583652 30:0.829074 31:-0.24753 32:0.851482 33:0.165068 34:-0.239552 35:-0.922622 36:-0.96002 37:0.879093 38:0.782687 39:-0.367797 40:-0.579319 41:-0.326356 42:-0.605271 43:0.57719 44:0.535353 
0 0 0.5 0 0 0 1:0.212799 2:-0.816976 3:-0.511695 4:-0.492241 5:-0.697132 6:-0.10082 7:0.286938 8:-0.697782 9:-0.308745 10:-0.547109 11:-0.787738 12:0.795554 13:-0.285712 14:-0.69939 15:-0.000900462 16:-0.307805 17:-0.106895 18:0.550261 19:-0.541733 20:0.69685 21:-0.383726 22:-0.470297 23:-0.0177219 24:-0.234303 25:0.961268 26:0.530476 27:0.696247 28:-0.409902 29:-0.584025 30:0.836503 31:-0.249064 32:0.848227 33:0.165068 34:-0.239552 35:-0.922622 36:-0.96002 37:0.879093 38:0.782687 39:-0.367797 40:-0.579319 41:-0.326356 42:-0.605271 43:0.57719 44:0.535353 
0 0 0.5 0.5 0 0 1:0.209626 2:-0.803125 3:-0.520793 4:-0.490749 5:-0.697203 6:-0.100711 7:0.287752 8:-0.697813 9:-0.332954 10:-0.536741 11:-0.787006 12:0.799637 13:-0.28655 14:-0.699399 15:0.0198389 16:-0.299746 17:-0.104281 18:0.5546 19:-0.539021 20:0.697205 21:-0.371471 22:-0.472822 23:-0.00401227 24:-0.233597 25:0.958119 26:0.530934 27:0.696408 28:-0.391334 29:-0.586477 30:0.863455 31:-0.248077 32:0.835969 33:0.165068 34:-0.239552 35:-0.922622 36:-0.96002 37:0.879093 38:0.782687 39:-0.367797 40:-0.579319 41:-0.326356 42:-0.605271 43:0.57719 44:0.535353 
0.5 0.5 0.5 0.2235439986469712 0 0 1:0.214627 2:-0.788606 3:-0.525314 4:-0.481099 5:-0.697094 6:-0.0972795 7:0.28772 8:-0.698039 9:-0.346815 10:-0.540598 11:-0.788202 12:0.793826 13:-0.28666 14:-0.699924 15:0.0223575 16:-0.302956 17:-0.108642 18:0.54854 19:-0.540582 20:0.696222 21:-0.385605 22:-0.468623 23:-0.00139733 24:-0.235365 25:0.957996 26:0.528476 27:0.695344 28:-0.399868 29:-0.5824 30:0.868596 31:-0.250551 32:0.835488 33:0.165068 34:-0.239552 35:-0.922622 36:-0.96002 37:0.879093 38:0.782687 39:-0.367797 40:-0.579319 41:-0.326356 42:-0.605271 43:0.57719 44:0.535353 
0.5 0.5 0.5 0 0.5 0 1:0.217088 2:-0.79355 3:-0.514931 4:-0.484274 5:-0.697223 6:-0.103688 7:0.28774 8:-0.697881 9:-0.333878 10:-0.549237 11:-0.788952 12:0.789557 13:-0.28663 14:-0.699471 15:0.0358472 16:-0.310025 17:-0.111231 18:0.54408 19:-0.540731 20:0.696891 21:-0.39722 22:-0.465247 23:-0.00258437 24:-0.238625 25:0.958548 26:0.528246 27:0.696354 28:-0.4097 29:-0.579121 30:0.866262 31:-0.255115 32:0.837639 33:0.165068 34:-0.239552 35:-0.922622 36:-0.96002 37:0.879093 38:0.782687 39:-0.367797 40:-0.579319 41:-0.326356 42:-0.605271 43:0.57719 44:0.535353 
0 0 0.5 0 0 0 1:0.218279 2:-0.792574 3:-0.507483 4:-0.481361 5:-0.69724 6:-0.0992867 7:0.287676 8:-0.697991 9:-0.342567 10:-0.550792 11:-0.787509 12:0.796449 13:-0.286616 14:-0.699786 15:0.0249592 16:-0.311294 17:-0.106319 18:0.551293 19:-0.539479 20:0.69624 21:-0.368833 22:-0.469589 23:-0.00357459 24:-0.239988 25:0.958209 26:0.530309 27:0.694594 28:-0.378966 29:-0.583338 30:0.864316 31:-0.257023 32:0.836318 33:0.165068 34:-0.239552 35:-0.922622 36:-0.96002 37:0.879093 38:0.782687 39:-0.367797 40:-0.579319 41:-0.326356 42:-0.605271 43:0.57719 44:0.535353 
0 0 0.5 0 0.5 0 1:0.219321 2:-0.784253 3:-0.511293 4:-0.482142 5:-0.697093 6:-0.102132 7:0.287675 8:-0.697732 9:-0.338543 10:-0.562066 11:-0.789035 12:0.788093 13:-0.286596 14:-0.699304 15:0.0283317 16:-0.3205 17:-0.111522 18:0.542528 19:-0.540841 20:0.696836 21:-0.388978 22:-0.463356 23:-0.00409661 24:-0.244155 25:0.958913 26:0.528368 27:0.696262 28:-0.404132 29:-0.577285 30:0.863289 31:-0.262856 32:0.83906 33:0.165068 34:-0.239552 35:-0.922622 36:-0.96002 37:0.879093 38:0.782687 39:-0.367797 40:-0.579319 41:-0.326356 42:-0.605271 43:0.57719 44:0.535353 
0 0 0.5 0 0 0 1:0.221493 2:-0.77813 3:-0.515205 4:-0.488374 5:-0.697172 6:-0.104186 7:0.28762 8:-0.697746 9:-0.325236 10:-0.566599 11:-0.788307 12:0.79125 13:-0.286455 14:-0.699149 15:0.0206996 16:-0.324156 17:-0.108857 18:0.545809 19:-0.541156 20:0.697048 21:-0.385569 22:-0.465093 23:-0.00551973 24:-0.246348 25:0.958942 26:0.528266 27:0.696719 28:-0.404245 29:-0.578972 30:0.860492 31:-0.265925 32:0.839173 33:0.165068 34:-0.239552 35:-0.922622 36:-0.96002 37:0.879093 38:0.782687 39:-0.367797 40:-0.579319 41:-0.326356 42:-0.605271 43:0.57719 44:0.535353 
0 0 0.5 0 0 0 1:0.221124 2:-0.780852 3:-0.50847 4:-0.467364 5:-0.697155 6:-0.110027 7:0.287594 8:-0.697842 9:-0.329251 10:-0.555738 11:-0.787886 12:0.794229 13:-0.286524 14:-0.69944 15:0.0174267 16:-0.315275 17:-0.107418 18:0.548926 19:-0.541031 20:0.69686 21:-0.372017 22:-0.467616 23:-0.00176419 24:-0.242514 25:0.957965 26:0.528455 27:0.696136 28:-0.390415 29:-0.581422 30:0.867875 31:-0.260559 32:0.835366 33:0.165068 34:-0.239552 35:-0.922622 36:-0.96002 37:0.879093 38:0.782687 39:-0.367797 40:-0.579319 41:-0.326356 42:-0.605271 43:0.57719 44:0.535353 
0.5 0.5 0.5 0 0.5 0 1:0.22398 2:-0.793299 3:-0.514334 4:-0.490563 5:-0.697141 6:-0.104503 7:0.287693 8:-0.697694 9:-0.329848 10:-0.55311 11:-0.789529 12:0.786378 13:-0.286486 14:-0.699127 15:0.0281279 16:-0.313143 17:-0.113241 18:0.540719 19:-0.540769 20:0.697057 21:-0.388235 22:-0.462439 23:0.00369358 24:-0.241657 25:0.95739 26:0.528539 27:0.696669 28:-0.404226 29:-0.576395 30:0.878604 31:-0.259359 32:0.833129 33:0.165068 34:-0.239552 35:-0.922622 36:-0.96002 37:0.879093 38:0.782687 39:-0.367797 40:-0.579319 41:-0.326356 42:-0.605271 43:0.57719 44:0.535353 
0.5 0.5 0.5 0 0.5 0 1:0.225032 2:-0.788868 3:-0.511775 4:-0.489559 5:-0.69713 6:-0.101792 7:0.287556 8:-0.697809 9:-0.324322 10:-0.550521 11:-0.788598 12:0.791167 13:-0.286376 14:-0.699422 15:0.0153946 16:-0.310955 17:-0.10997 18:0.54571 19:-0.540794 20:0.696795 21:-0.38109 22:-0.465696 23:0.00390677 24:-0.241091 25:0.956982 26:0.529049 27:0.696196 28:-0.401012 29:-0.579557 30:0.879024 31:-0.258567 32:0.831541 33:0.165068 34:-0.239552 35:-0.922622 36:-0.96002 37:0.879093 38:0.782687 39:-0.367797 40:-0.579319 41:-0.326356 42:-0.605271 43:0.57719 44:0.535353 
0.5 0.5 0.5 0.5 0.5 0.5 1:0.221719 2:-0.796622 3:-0.519911 4:-0.485232 5:-0.697209 6:-0.101784 7:0.287606 8:-0.69784 9:-0.34345 10:-0.547842 11:-0.789459 12:0.787157 13:-0.286481 14:-0.699296 15:0.0313016 16:-0.308805 17:-0.112996 18:0.541557 19:-0.541265 20:0.696966 21:-0.393834 22:-0.462949 23:0.00997567 24:-0.240845 25:0.955931 26:0.528132 27:0.696577 28:-0.406795 29:-0.57689 30:0.890955 31:-0.258223 32:0.827449 33:0.165068 34:-0.239552 35:-0.922622 36:-0.96002 37:0.879093 38:0.782687 39:-0.367797 40:-0.579319 41:-0.326356 42:-0.605271 43:0.57719 44:0.535353 
0.5 0.5 0.5 0 0 0 1:0.21689 2:-0.803394 3:-0.508309 4:-0.480028 5:-0.697113 6:-0.101596 7:0.287495 8:-0.697709 9:-0.342941 10:-0.546345 11:-0.787805 12:0.795205 13:-0.286449 14:-0.699217 15:0.0317284 16:-0.307539 17:-0.107097 18:0.550004 19:-0.541339 20:0.696945 21:-0.385766 22:-0.468455 23:0.00652288 24:-0.24031 25:0.956093 26:0.528397 27:0.696464 28:-0.398689 29:-0.582237 30:0.884167 31:-0.257474 32:0.828081 33:0.165068 34:-0.239552 35:-0.922622 36:-0.96002 37:0.879093 38:0.782687 39:-0.367797 40:-0.579319 41:-0.326356 42:-0.605271 43:0.57719 44:0.535353 
0.5 0.5 0.5 0 0 0 1:0.218327 2:-0.799626 3:-0.515546 4:-0.478428 5:-0.697173 6:-0.0998563 7:0.287324 8:-0.697901 9:-0.354711 10:-0.551249 11:-0.78831 12:0.792528 13:-0.28631 14:-0.699452 15:0.0356562 16:-0.311468 17:-0.108915 18:0.547215 19:-0.541997 20:0.69672 21:-0.386375 22:-0.466587 23:0.00307473 24:-0.241366 25:0.957055 26:0.528206 27:0.696242 28:-0.396229 29:-0.580423 30:0.877388 31:-0.258952 32:0.831824 33:0.165068 34:-0.239552 35:-0.922622 36:-0.96002 37:0.879093 38:0.782687 39:-0.367797 40:-0.579319 41:-0.326356 42:-0.605271 43:0.57719 44:0.535353 
0.5 0.5 0.5 0 0.5 0 1:0.21289 2:-0.796569 3:-0.518031 4:-0.480036 5:-0.697314 6:-0.106364 7:0.287295 8:-0.697864 9:-0.351043 10:-0.554154 11:-0.789329 12:0.787339 13:-0.286256 14:-0.699184 15:0.0490725 16:-0.313823 17:-0.112485 18:0.541796 19:-0.542273 20:0.697225 21:-0.393497 22:-0.463511 23:-0.0035126 24:-0.240374 25:0.958895 26:0.527973 27:0.697001 28:-0.401483 29:-0.577436 30:0.864438 31:-0.257563 32:0.838989 33:0.165068 34:-0.239552 35:-0.922622 36:-0.96002 37:0.879093 38:0.782687 39:-0.367797 40:-0.579319 41:-0.326356 42:-0.605271 43:0.57719 44:0.535353 
0 0 0.5 0 0 0 1:0.218447 2:-0.796889 3:-0.513793 4:-0.480676 5:-0.697134 6:-0.0985003 7:0.287642 8:-0.6979 9:-0.338966 10:-0.55391 11:-0.788018 12:0.793751 13:-0.286586 14:-0.699494 15:0.0211654 16:-0.313811 17:-0.107884 18:0.54845 19:-0.541262 20:0.696612 21:-0.385943 22:-0.468283 23:-0.0130195 24:-0.238671 25:0.960407 26:0.527886 27:0.69608 28:-0.401915 29:-0.58207 30:0.845747 31:-0.255179 32:0.844874 33:0.165068 34:-0.239552 35:-0.922622 36:-0.96002 37:0.879093 38:0.782687 39:-0.367797 40:-0.579319 41:-0.326356 42:-0.605271 43:0.57719 44:0.535353 
0 0 0.5 0 0 0 1:0.213092 2:-0.782585 3:-0.520678 4:-0.477922 5:-0.697284 6:-0.0986985 7:0.287505 8:-0.698018 9:-0.356692 10:-0.549734 11:-0.788433 12:0.792084 13:-0.286497 14:-0.699596 15:0.0342769 16:-0.310329 17:-0.109366 18:0.546748 19:-0.541553 20:0.696831 21:-0.381543 22:-0.467547 23:-0.0127264 24:-0.236526 25:0.960501 26:0.528011 27:0.696304 28:-0.391447 29:-0.581355 30:0.846324 31:-0.252176 32:0.845238 33:0.165068 34:-0.239552 35:-0.922622 36:-0.96002 37:0.879093 38:0.782687 39:-0.367797 40:-0.579319 41:-0.326356 42:-0.605271 43:0.57719 44:0.535353 
0 0.5 0.5 0 0.5 0 1:0.218244 2:-0.791626 3:-0.520639 4:-0.479858 5:-0.697115 6:-0.100988 7:0.287673 8:-0.697706 9:-0.3406 10:-0.554719 11:-0.790799 12:0.779999 13:-0.286629 14:-0.699147 15:0.0265269 16:-0.314494 17:-0.117785 18:0.534031 19:-0.541269 20:0.696952 21:-0.386669 22:-0.459874 23:-0.0192731 24:-0.235794 25:0.962747 26:0.52773 27:0.696572 28:-0.400952 29:-0.573904 30:0.833453 31:-0.251152 32:0.853985 33:0.165068 34:-0.239552 35:-0.922622 36:-0.96002 37:0.879093 38:0.782687 39:-0.367797 40:-0.579319 41:-0.326356 42:-0.605271 43:0.57719 44:0.535353 
0 0.372512851633501 0.5 0 0.5 0 1:0.221707 2:-0.805172 3:-0.51712 4:-0.486799 5:-0.697222 6:-0.103472 7:0.28764 8:-0.697723 9:-0.338709 10:-0.552505 11:-0.791052 12:0.778909 13:-0.286496 14:-0.699014 15:0.0300406 16:-0.312636 17:-0.11864 18:0.532893 19:-0.541372 20:0.697246 21:-0.386668 22:-0.459473 23:-0.0211043 24:-0.234143 25:0.96321 26:0.52787 27:0.697045 28:-0.400664 29:-0.573514 30:0.829853 31:-0.248841 32:0.855784 33:0.165068 34:-0.239552 35:-0.922622 36:-0.96002 37:0.879093 38:0.782687 39:-0.367797 40:-0.579319 41:-0.326356 42:-0.605271 43:0.57719 44:0.535353 
0 0.5 0.5 0 0.5 0 1:0.21301 2:-0.800264 3:-0.522208 4:-0.487597 5:-0.697126 6:-0.105502 7:0.287607 8:-0.697834 9:-0.314976 10:-0.544464 11:-0.79116 12:0.779034 13:-0.286447 14:-0.69938 15:0.0186047 16:-0.30603 17:-0.119111 18:0.532974 19:-0.541079 20:0.696721 21:-0.387532 22:-0.460317 23:-0.0236359 24:-0.229671 25:0.963745 26:0.528421 27:0.696237 28:-0.408226 29:-0.574335 30:0.824876 31:-0.242581 32:0.857869 33:0.165068 34:-0.239552 35:-0.922622 36:-0.96002 37:0.879093 38:0.782687 39:-0.367797 40:-0.579319 41:-0.326356 42:-0.605271 43:0.57719 44:0.535353 
0 0 0.5 0 0.5 0 1:0.207417 2:-0.793778 3:-0.516689 4:-0.483108 5:-0.697048 6:-0.0937091 7:0.287704 8:-0.697793 9:-0.344914 10:-0.535031 11:-0.789725 12:0.786634 13:-0.286616 14:-0.699425 15:0.0117017 16:-0.298383 17:-0.114007 18:0.540965 19:-0.540855 20:0.696578 21:-0.387882 22:-0.465565 23:-0.0180391 24:-0.227505 25:0.962087 26:0.528211 27:0.695976 28:-0.404878 29:-0.57943 30:0.835879 31:-0.239549 32:0.851413 33:0.165068 34:-0.239552 35:-0.922622 36:-0.96002 37:0.879093 38:0.782687 39:-0.367797 40:-0.579319 41:-0.326356 42:-0.605271 43:0.57719 44:0.535353 
0.5 0.5 0.5 0 0.5 0.5 1:0.205421 2:-0.79437 3:-0.518685 4:-0.48436 5:-0.697158 6:-0.105109 7:0.287653 8:-0.697844 9:-0.336045 10:-0.534275 11:-0.789982 12:0.785444 13:-0.286542 14:-0.699316 15:0.0346181 16:-0.297729 17:-0.114868 18:0.539759 19:-0.541324 20:0.696796 21:-0.388959 22:-0.464757 23:-0.0163674 24:-0.227421 25:0.961844 26:0.527826 27:0.696412 28:-0.402478 29:-0.578646 30:0.839166 31:-0.239432 32:0.850468 33:0.165068 34:-0.239552 35:-0.922622 36:-0.96002 37:0.879093 38:0.782687 39:-0.367797 40:-0.579319 41:-0.326356 42:-0.605271 43:0.57719 44:0.535353 
0 0 0.5 0 0 0 1:0.2068 2:-0.813245 3:-0.511544 4:-0.480416 5:-0.697173 6:-0.112071 7:0.287626 8:-0.69758 9:-0.327512 10:-0.529055 11:-0.789013 12:0.790293 13:-0.286573 14:-0.698878 15:0.0424193 16:-0.293457 17:-0.111344 18:0.544859 19:-0.541357 20:0.697371 21:-0.387276 22:-0.468461 23:-0.0196942 24:-0.224645 25:0.962159 26:0.527829 27:0.697128 28:-0.400543 29:-0.582242 30:0.832625 31:-0.235545 32:0.851694 33:0.165068 34:-0.239552 35:-0.922622 36:-0.96002 37:0.879093 38:0.782687 39:-0.367797 40:-0.579319 41:-0.326356 42:-0.605271 43:0.57719 44:0.535353 
0 0 0.5 0 0 0 1:0.208337 2:-0.823349 3:-0.514245 4:-0.486987 5:-0.697091 6:-0.10055 7:0.287588 8:-0.697723 9:-0.32273 10:-0.527757 11:-0.788037 12:0.795149 13:-0.286438 14:-0.699171 15:0.0124373 16:-0.292346 17:-0.107906 18:0.549881 19:-0.541269 20:0.696842 21:-0.38412 22:-0.471838 23:-0.0226259 24:-0.223828 25:0.962364 26:0.528233 27:0.696468 28:-0.404758 29:-0.585522 30:0.826862 31:-0.234402 32:0.852494 33:0.165068 34:-0.239552 35:-0.922622 36:-0.96002 37:0.879093 38:0.782687 39:-0.367797 40:-0.579319 41:-0.326356 42:-0.605271 43:0.57719 44:0.535353 
0.5 0 0.5 0.5 0 0.5 1:0.20301 2:-0.815416 3:-0.519382 4:-0.480705 5:-0.697113 6:-0.100355 7:0.287698 8:-0.697733 9:-0.342059 10:-0.515281 11:-0.78804 12:0.795594 13:-0.286641 14:-0.699271 15:0.0286713 16:-0.282219 17:-0.107951 18:0.550405 19:-0.54091 20:0.696896 21:-0.385401 22:-0.472782 23:-0.0169455 24:-0.219433 25:0.961228 26:0.528125 27:0.696381 28:-0.39906 29:-0.586438 30:0.838029 31:-0.228249 32:0.848069 33:0.165068 34:-0.239552 35:-0.922622 36:-0.96002 37:0.879093 38:0.782687 39:-0.367797 40:-0.579319 41:-0.326356 42:-0.605271 43:0.57719 44:0.535353 
0 0 0.5 0.5 0 0.5 1:0.203848 2:-0.818108 3:-0.523725 4:-0.48054 5:-0.697106 6:-0.0964589 7:0.287679 8:-0.698052 9:-0.355339 10:-0.51991 11:-0.788703 12:0.792412 13:-0.286634 14:-0.699825 15:0.0254368 16:-0.286002 17:-0.11039 18:0.547071 19:-0.541066 20:0.69623 21:-0.384704 22:-0.47053 23:-0.0194549 24:-0.220603 25:0.961973 26:0.527976 27:0.695508 28:-0.39692 29:-0.584252 30:0.833096 31:-0.229886 32:0.850968 33:0.165068 34:-0.239552 35:-0.922622 36:-0.96002 37:0.879093 38:0.782687 39:-0.367797 40:-0.579319 41:-0.326356 42:-0.605271 43:0.57719 44:0.535353 
0.5 0 0.5 0.5 0.5 0.5 1:0.20538 2:-0.820774 3:-0.511185 4:-0.487056 5:-0.697217 6:-0.108377 7:0.287767 8:-0.697728 9:-0.326344 10:-0.523799 11:-0.790189 12:0.78486 13:-0.286619 14:-0.699152 15:0.0327867 16:-0.289206 17:-0.115603 18:0.539132 19:-0.540695 20:0.697208 21:-0.389907 22:-0.4656 23:-0.0233712 24:-0.220571 25:0.96333 26:0.528241 27:0.696818 28:-0.40551 29:-0.579465 30:0.825397 31:-0.229842 32:0.856252 33:0.165068 34:-0.239552 35:-0.922622 36:-0.96002 37:0.879093 38:0.782687 39:-0.367797 40:-0.579319 41:-0.326356 42:-0.605271 43:0.57719 44:0.535353 
0 0 0.5 0 0 0 1:0.210877 2:-0.830664 3:-0.509635 4:-0.483692 5:-0.69712 6:-0.0982126 7:0.28771 8:-0.69769 9:-0.33934 10:-0.523163 11:-0.788468 12:0.793236 13:-0.286615 14:-0.699126 15:0.0175994 16:-0.288668 17:-0.109446 18:0.547902 19:-0.541032 20:0.696998 21:-0.387555 22:-0.47103 23:-0.0236157 24:-0.22117 25:0.962725 26:0.527962 27:0.696613 28:-0.404201 29:-0.584737 30:0.824916 31:-0.230681 32:0.853897 33:0.165068 34:-0.239552 35:-0.922622 36:-0.96002 37:0.879093 38:0.782687 39:-0.367797 40:-0.579319 41:-0.326356 42:-0.605271 43:0.57719 44:0.535353 
0 0 0.5 0.5 0 0.5 1:0.209609 2:-0.821041 3:-0.516593 4:-0.482451 5:-0.697192 6:-0.0984003 7:0.287651 8:-0.697836 9:-0.351115 10:-0.51835 11:-0.788421 12:0.793703 13:-0.286571 14:-0.699305 15:0.0292862 16:-0.284699 17:-0.109286 18:0.548431 19:-0.541273 20:0.696919 21:-0.383512 22:-0.471643 23:-0.0224736 24:-0.219215 25:0.962476 26:0.52787 27:0.696517 28:-0.395386 29:-0.585333 30:0.827161 31:-0.227944 32:0.85293 33:0.165068 34:-0.239552 35:-0.922622 36:-0.96002 37:0.879093 38:0.782687 39:-0.367797 40:-0.579319 41:-0.326356 42:-0.605271 43:0.57719 44:0.535353 
0.5 0 0.5 0.5 0.5 0.5 1:0.204112 2:-0.813461 3:-0.514326 4:-0.479954 5:-0.697042 6:-0.0958708 7:0.287703 8:-0.697829 9:-0.351238 10:-0.518224 11:-0.790126 12:0.785435 13:-0.286667 14:-0.699497 15:0.0219574 16:-0.284638 17:-0.115455 18:0.539736 19:-0.540922 20:0.6965 21:-0.386093 22:-0.466608 23:-0.0270336 24:-0.217023 25:0.964014 26:0.528057 27:0.695863 28:-0.399969 29:-0.580443 30:0.818197 31:-0.224875 32:0.858914 33:0.165068 34:-0.239552 35:-0.922622 36:-0.96002 37:0.879093 38:0.782687 39:-0.367797 40:-0.579319 41:-0.326356 42:-0.605271 43:0.57719 44:0.535353 
0.5 0 0.5 0.5 0.5 0.5 1:0.202036 2:-0.815921 3:-0.515029 4:-0.48013 5:-0.697111 6:-0.103324 7:0.287681 8:-0.697743 9:-0.329207 10:-0.522107 11:-0.790954 12:0.78118 13:-0.286634 14:-0.69922 15:0.0235389 16:-0.287801 17:-0.11835 18:0.535252 19:-0.541227 20:0.696862 21:-0.386908 22:-0.463684 23:-0.0289067 24:-0.217909 25:0.964691 26:0.52776 27:0.696443 28:-0.404085 29:-0.577604 30:0.814514 31:-0.226116 32:0.861551 33:0.165068 34:-0.239552 35:-0.922622 36:-0.96002 37:0.879093 38:0.782687 39:-0.367797 40:-0.579319 41:-0.326356 42:-0.605271 43:0.57719 44:0.535353 
0.5 0 0.5 0.5 0.5 0.5 1:0.20542 2:-0.817034 3:-0.518776 4:-0.488256 5:-0.697214 6:-0.104808 7:0.287679 8:-0.697661 9:-0.323381 10:-0.515808 11:-0.790319 12:0.784491 13:-0.286513 14:-0.698955 15:0.022696 16:-0.282611 17:-0.11602 18:0.538718 19:-0.54108 20:0.697336 21:-0.388164 22:-0.466171 23:-0.0270705 24:-0.215746 25:0.964102 26:0.528125 27:0.697109 28:-0.406575 29:-0.580018 30:0.818124 31:-0.223089 32:0.859258 33:0.165068 34:-0.239552 35:-0.922622 36:-0.96002 37:0.879093 38:0.782687 39:-0.367797 40:-0.579319 41:-0.326356 42:-0.605271 43:0.57719 44:0.535353 
0.5 0 0.5 0.5 0 0.5 1:0.201469 2:-0.822377 3:-0.525767 4:-0.479947 5:-0.697061 6:-0.0944956 7:0.287637 8:-0.697802 9:-0.355436 10:-0.506264 11:-0.789094 12:0.790787 13:-0.286593 14:-0.699408 15:0.0244433 16:-0.274808 17:-0.11174 18:0.545364 19:-0.541175 20:0.696595 21:-0.387752 22:-0.470796 23:-0.0241566 24:-0.212659 25:0.963064 26:0.528012 27:0.696034 28:-0.399983 29:-0.584509 30:0.823852 31:-0.218767 32:0.855215 33:0.165068 34:-0.239552 35:-0.922622 36:-0.96002 37:0.879093 38:0.782687 39:-0.367797 40:-0.579319 41:-0.326356 42:-0.605271 43:0.57719 44:0.535353 
0.5 0 0.5 0.5 0 0.5 1:0.199644 2:-0.811809 3:-0.533198 4:-0.486947 5:-0.697148 6:-0.102558 7:0.287688 8:-0.697705 9:-0.338876 10:-0.509811 11:-0.789891 12:0.786776 13:-0.286538 14:-0.699311 15:0.0288146 16:-0.277711 17:-0.114601 18:0.541146 19:-0.540349 20:0.697045 21:-0.387046 22:-0.468151 23:-0.0282316 24:-0.212843 25:0.964161 26:0.529041 27:0.696419 28:-0.401348 29:-0.581941 30:0.815841 31:-0.219025 32:0.859487 33:0.165068 34:-0.239552 35:-0.922622 36:-0.96002 37:0.879093 38:0.782687 39:-0.367797 40:-0.579319 41:-0.326356 42:-0.605271 43:0.57719 44:0.535353 
0 0 0.5 0.5 0 0.5 1:0.20021 2:-0.804689 3:-0.526929 4:-0.477446 5:-0.697014 6:-0.0956604 7:0.287621 8:-0.697952 9:-0.349973 10:-0.521057 11:-0.789751 12:0.787244 13:-0.286611 14:-0.699627 15:0.0226153 16:-0.286918 17:-0.114105 18:0.541636 19:-0.541606 20:0.696157 21:-0.389552 22:-0.467684 23:-0.029428 24:-0.21795 25:0.964324 26:0.527449 27:0.695578 28:-0.40313 29:-0.581488 30:0.813489 31:-0.226174 32:0.860123 33:0.165068 34:-0.239552 35:-0.922622 36:-0.96002 37:0.879093 38:0.782687 39:-0.367797 40:-0.579319 41:-0.326356 42:-0.605271 43:0.57719 44:0.535353 
0 0 0.5 0.5 0 0.5 1:0.198478 2:-0.810095 3:-0.514534 4:-0.477846 5:-0.697115 6:-0.100261 7:0.287575 8:-0.697693 9:-0.344089 10:-0.516385 11:-0.789774 12:0.787153 13:-0.286575 14:-0.699116 15:0.0268158 16:-0.283071 17:-0.114111 18:0.541543 19:-0.541559 20:0.696971 21:-0.390483 22:-0.468115 23:-0.0322342 24:-0.214972 25:0.964876 26:0.527696 27:0.696609 28:-0.404402 29:-0.581906 30:0.807972 31:-0.222005 32:0.86227 33:0.165068 34:-0.239552 35:-0.922622 36:-0.96002 37:0.879093 38:0.782687 39:-0.367797 40:-0.579319 41:-0.326356 42:-0.605271 43:0.57719 44:0.535353 
0 0 0.5 0.5 0 0.391364918085764 1:0.202837 2:-0.809589 3:-0.524125 4:-0.484876 5:-0.697131 6:-0.0973884 7:0.287481 8:-0.697732 9:-0.343593 10:-0.514164 11:-0.789092 12:0.790561 13:-0.286364 14:-0.699212 15:0.02457 16:-0.281168 17:-0.111692 18:0.545114 19:-0.541334 20:0.696939 21:-0.389669 22:-0.470574 23:-0.0344552 24:-0.213697 25:0.96503 26:0.528556 27:0.696506 28:-0.404075 29:-0.584294 30:0.803606 31:-0.220219 32:0.862871 33:0.165068 34:-0.239552 35:-0.922622 36:-0.96002 37:0.879093 38:0.782687 39:-0.367797 40:-0.579319 41:-0.326356 42:-0.605271 43:0.57719 44:0.535353 
0 0 0.5 0.5 0 0 1:0.207438 2:-0.800948 3:-0.528546 4:-0.490825 5:-0.697165 6:-0.102425 7:0.287225 8:-0.697933 9:-0.308487 10:-0.514062 11:-0.788587 12:0.79314 13:-0.285807 14:-0.700855 15:-0.0554788 16:-0.28084 17:-0.110458 18:0.547588 19:-0.53771 20:0.695661 21:-0.365237 22:-0.47231 23:-0.0362542 24:-0.213416 25:0.965163 26:0.534606 27:0.69361 28:-0.420278 29:-0.58598 30:0.800069 31:-0.219827 32:0.863388 33:0.165068 34:-0.239552 35:-0.922622 36:-0.96002 37:0.879093 38:0.782687 39:-0.367797 40:-0.579319 41:-0.326356 42:-0.605271 43:0.57719 44:0.535353 
0 0 0.5 0.5 0 0.5 1:0.212319 2:-0.803528 3:-0.520024 4:-0.490062 5:-0.697189 6:-0.107152 7:0.287715 8:-0.697606 9:-0.324668 10:-0.51467 11:-0.78842 12:0.793726 13:-0.286394 14:-0.698568 15:0.0362996 16:-0.281641 17:-0.109071 18:0.548447 19:-0.537682 20:0.699183 21:-0.364491 22:-0.472078 23:-0.0253959 24:-0.216702 25:0.963059 26:0.532359 27:0.698471 28:-0.386326 29:-0.585755 30:0.821416 31:-0.224427 32:0.855199 33:0.165068 34:-0.239552 35:-0.922622 36:-0.96002 37:0.879093 38:0.782687 39:-0.367797 40:-0.579319 41:-0.326356 42:-0.605271 43:0.57719 44:0.535353 
0 0 0.5 0.5 0 0 1:0.210617 2:-0.812294 3:-0.527605 4:-0.482825 5:-0.697017 6:-0.101677 7:0.287682 8:-0.697708 9:-0.341845 10:-0.523025 11:-0.789015 12:0.79062 13:-0.286645 14:-0.699378 15:0.0381643 16:-0.288562 17:-0.111491 18:0.54521 19:-0.541681 20:0.696257 21:-0.385825 22:-0.469352 23:-0.0233213 24:-0.220872 25:0.962873 26:0.527163 27:0.695743 28:-0.391805 29:-0.583108 30:0.825495 31:-0.230263 32:0.854473 33:0.165068 34:-0.239552 35:-0.922622 36:-0.96002 37:0.879093 38:0.782687 39:-0.367797 40:-0.579319 41:-0.326356 42:-0.605271 43:0.57719 44:0.535353 
0 0 0.5 0.2880040710220224 0 0.5 1:0.208391 2:-0.808308 3:-0.523195 4:-0.524463 5:-0.696675 6:-0.0455855 7:0.287735 8:-0.698045 9:-0.337871 10:-0.523931 11:-0.789527 12:0.788377 13:-0.286277 14:-0.700553 15:-0.0630462 16:-0.289208 17:-0.113576 18:0.542603 19:-0.53995 20:0.694693 21:-0.419405 22:-0.468006 23:-0.0262233 24:-0.220312 25:0.963612 26:0.529492 27:0.693869 28:-0.448087 29:-0.581801 30:0.819789 31:-0.22948 32:0.857351 33:0.165068 34:-0.239552 35:-0.922622 36:-0.96002 37:0.879093 38:0.782687 39:-0.367797 40:-0.579319 41:-0.326356 42:-0.605271 43:0.57719 44:0.535353 
0 0 0.5 0.5 0 0 1:0.209812 2:-0.805549 3:-0.525411 4:-0.490673 5:-0.696999 6:-0.101036 7:0.287629 8:-0.697783 9:-0.324228 10:-0.52067 11:-0.788575 12:0.792896 13:-0.286279 14:-0.700151 15:-0.00719829 16:-0.286495 17:-0.110212 18:0.547462 19:-0.538627 20:0.695369 21:-0.370032 22:-0.470999 23:-0.0236826 24:-0.219909 25:0.962774 26:0.531815 27:0.693804 28:-0.40386 29:-0.584707 30:0.824784 31:-0.228916 32:0.854087 33:0.165068 34:-0.239552 35:-0.922622 36:-0.96002 37:0.879093 38:0.782687 39:-0.367797 40:-0.579319 41:-0.326356 42:-0.605271 43:0.57719 44:0.535353 
0.5 0 0.5 0.5 0 0.5 1:0.211422 2:-0.804548 3:-0.514985 4:-0.48221 5:-0.697047 6:-0.104694 7:0.287668 8:-0.697576 9:-0.337125 10:-0.520837 11:-0.789003 12:0.790691 13:-0.286675 14:-0.698385 15:0.0618881 16:-0.286777 17:-0.111107 18:0.545336 19:-0.541336 20:0.698044 21:-0.380258 22:-0.469276 23:-0.0181944 24:-0.221166 25:0.961853 26:0.527652 27:0.698142 28:-0.384164 29:-0.583033 30:0.835574 31:-0.230675 32:0.850502 33:0.165068 34:-0.239552 35:-0.922622 36:-0.96002 37:0.879093 38:0.782687 39:-0.367797 40:-0.579319 41:-0.326356 42:-0.605271 43:0.57719 44:0.535353 
0 0 0.5 0.5 0 0.5 1:0.211429 2:-0.8067 3:-0.520563 4:-0.483737 5:-0.697125 6:-0.0974155 7:0.287639 8:-0.697602 9:-0.366324 10:-0.524283 11:-0.789401 12:0.788577 13:-0.286533 14:-0.698913 15:0.0488988 16:-0.289543 17:-0.112702 18:0.543148 19:-0.541595 20:0.697168 21:-0.394897 22:-0.467848 23:-0.0210986 24:-0.221808 25:0.962586 26:0.527417 27:0.697143 28:-0.393437 29:-0.581647 30:0.829864 31:-0.231574 32:0.853357 33:0.165068 34:-0.239552 35:-0.922622 36:-0.96002 37:0.879093 38:0.782687 39:-0.367797 40:-0.579319 41:-0.326356 42:-0.605271 43:0.57719 44:0.535353 
0 0 0.5 0 0 0 1:0.20445 2:-0.807379 3:-0.51778 4:-0.482526 5:-0.697049 6:-0.101762 7:0.287694 8:-0.697708 9:-0.333484 10:-0.526512 11:-0.789471 12:0.788257 13:-0.286607 14:-0.699225 15:0.0239991 16:-0.291404 17:-0.113061 18:0.542685 19:-0.541066 20:0.696747 21:-0.386338 22:-0.467719 23:-0.0259542 24:-0.221583 25:0.963561 26:0.527965 27:0.696286 28:-0.402681 29:-0.581522 30:0.820319 31:-0.231259 32:0.857152 33:0.165068 34:-0.239552 35:-0.922622 36:-0.96002 37:0.879093 38:0.782687 39:-0.367797 40:-0.579319 41:-0.326356 42:-0.605271 43:0.57719 44:0.535353 
0 0 0.5 0.5 0 0 1:0.208111 2:-0.809634 3:-0.513829 4:-0.48374 5:-0.697101 6:-0.101167 7:0.287615 8:-0.697787 9:-0.331851 10:-0.522827 11:-0.789295 12:0.78931 13:-0.286521 14:-0.699223 15:0.0196907 16:-0.288341 17:-0.112401 18:0.543779 19:-0.541477 20:0.696757 21:-0.38782 22:-0.468633 23:-0.0252553 24:-0.220111 25:0.963355 26:0.527668 27:0.696414 28:-0.405578 29:-0.58241 30:0.821693 31:-0.229199 32:0.856352 33:0.165068 34:-0.239552 35:-0.922622 36:-0.96002 37:0.879093 38:0.782687 39:-0.367797 40:-0.579319 41:-0.326356 42:-0.605271 43:0.57719 44:0.535353 
0 0 0.5 0.5 0 0.5 1:0.209074 2:-0.807221 3:-0.518345 4:-0.474169 5:-0.697056 6:-0.0988555 7:0.287517 8:-0.697677 9:-0.344245 10:-0.512416 11:-0.788776 12:0.7921 13:-0.286542 14:-0.699127 15:0.0359819 16:-0.279787 17:-0.110556 18:0.546768 19:-0.541765 20:0.69686 21:-0.388386 22:-0.471149 23:-0.0237483 24:-0.21583 25:0.962868 26:0.527727 27:0.696448 28:-0.398259 29:-0.584852 30:0.824655 31:-0.223206 32:0.854455 33:0.165068 34:-0.239552 35:-0.922622 36:-0.96002 37:0.879093 38:0.782687 39:-0.367797 40:-0.579319 41:-0.326356 42:-0.605271 43:0.57719 44:0.535353 
0 0 0.5 0.5 0 0.5 1:0.207273 2:-0.811547 3:-0.517198 4:-0.48269 5:-0.697073 6:-0.102811 7:0.287661 8:-0.69773 9:-0.3294 10:-0.516528 11:-0.789215 12:0.789907 13:-0.28658 14:-0.69923 15:0.0233252 16:-0.283213 17:-0.112136 18:0.544411 19:-0.541165 20:0.696776 21:-0.38555 22:-0.469755 23:-0.0302743 24:-0.215871 25:0.964292 26:0.52797 27:0.696332 28:-0.402691 29:-0.583499 30:0.811826 31:-0.223262 32:0.859997 33:0.165068 34:-0.239552 35:-0.922622 36:-0.96002 37:0.879093 38:0.782687 39:-0.367797 40:-0.579319 41:-0.326356 42:-0.605271 43:0.57719 44:0.535353 
0 0 0.5 0.5 0 0.5 1:0.211342 2:-0.815755 3:-0.517242 4:-0.483203 5:-0.697142 6:-0.0982439 7:0.287582 8:-0.697765 9:-0.346822 10:-0.511053 11:-0.789051 12:0.790859 13:-0.286494 14:-0.699269 15:0.0246111 16:-0.278686 17:-0.111554 18:0.545431 19:-0.541197 20:0.696911 21:-0.392144 22:-0.470699 23:-0.0286097 24:-0.213784 25:0.963912 26:0.528275 27:0.696451 28:-0.405874 29:-0.584415 30:0.815098 31:-0.220341 32:0.858517 33:0.165068 34:-0.239552 35:-0.922622 36:-0.96002 37:0.879093 38:0.782687 39:-0.367797 40:-0.579319 41:-0.326356 42:-0.605271 43:0.57719 44:0.535353 
0 0 0.5 0.5 0 0 1:0.207031 2:-0.819208 3:-0.520659 4:-0.497248 5:-0.697276 6:-0.113619 7:0.287436 8:-0.697828 9:-0.329624 10:-0.512222 11:-0.788116 12:0.795372 13:-0.286302 14:-0.699343 15:0.0193716 16:-0.279549 17:-0.10822 18:0.550132 19:-0.54116 20:0.697032 21:-0.381239 22:-0.473613 23:-0.0309705 24:-0.214207 25:0.964005 26:0.529027 27:0.696535 28:-0.400136 29:-0.587245 30:0.810457 31:-0.220934 32:0.858878 33:0.165068 34:-0.239552 35:-0.922622 36:-0.96002 37:0.879093 38:0.782687 39:-0.367797 40:-0.579319 41:-0.326356 42:-0.605271 43:0.57719 44:0.535353 
0 0 0.5 0.5 0 0.5 1:0.211162 2:-0.813975 3:-0.520804 4:-0.491477 5:-0.697374 6:-0.102749 7:0.287283 8:-0.697906 9:-0.322009 10:-0.509553 11:-0.788846 12:0.791962 13:-0.286073 14:-0.699546 15:0.0158147 16:-0.277258 17:-0.110878 18:0.546542 19:-0.540643 20:0.697347 21:-0.383421 22:-0.471398 23:-0.0264157 24:-0.213717 25:0.963408 26:0.530464 27:0.696637 28:-0.40367 29:-0.585094 30:0.819411 31:-0.220248 32:0.856556 33:0.165068 34:-0.239552 35:-0.922622 36:-0.96002 37:0.879093 38:0.782687 39:-0.367797 40:-0.579319 41:-0.326356 42:-0.605271 43:0.57719 44:0.535353 
0.1795195052497553 0 0.5 0.5 0 0.5 1:0.214484 2:-0.807753 3:-0.522081 4:-0.487458 5:-0.697141 6:-0.103506 7:0.287314 8:-0.697795 9:-0.312648 10:-0.519169 11:-0.788764 12:0.792045 13:-0.286161 14:-0.699433 15:0.00907565 16:-0.285161 17:-0.11058 18:0.5466 19:-0.541056 20:0.696845 21:-0.383406 22:-0.470331 23:-0.0193509 24:-0.220171 25:0.961986 26:0.530198 27:0.696039 28:-0.412547 29:-0.584058 30:0.8333 31:-0.229282 32:0.851022 33:0.165068 34:-0.239552 35:-0.922622 36:-0.96002 37:0.879093 38:0.782687 39:-0.367797 40:-0.579319 41:-0.326356 42:-0.605271 43:0.57719 44:0.535353 
0.5 0 0.5 0.5 0 0.5 1:0.214484 2:-0.807753 3:-0.522081 4:-0.487458 5:-0.697141 6:-0.103506 7:0.287314 8:-0.697795 9:-0.312648 10:-0.519169 11:-0.788764 12:0.792045 13:-0.286161 14:-0.699433 15:0.00907565 16:-0.285161 17:-0.11058 18:0.5466 19:-0.541056 20:0.696845 21:-0.383406 22:-0.470331 23:-0.0193509 24:-0.220171 25:0.961986 26:0.530198 27:0.696039 28:-0.412547 29:-0.584058 30:0.8333 31:-0.229282 32:0.851022 33:0.165068 34:-0.239552 35:-0.922622 36:-0.96002 37:0.879093 38:0.782687 39:-0.367797 40:-0.579319 41:-0.326356 42:-0.605271 43:0.57719 44:0.535353 
0.5 0.5 0.5 0.5 0.5 0.5 1:0.192043 2:-0.933465 3:-0.708216 4:-0.481425 5:-0.972471 6:-0.12248 7:0.364777 8:-0.972809 9:-0.277368 10:0.0147266 11:-0.785433 12:0.6028 13:-0.363498 14:-0.973978 15:0.0468917 16:-0.575354 17:-0.280162 18:0.166749 19:-0.735066 20:0.971615 21:-0.379985 22:-0.180604 23:-0.192837 24:-0.0979504 25:0.999676 26:0.723454 27:0.970123 28:-0.398783 29:-0.137478 30:-0.982308 31:0.0404516 32:-0.0862894 33:0.645594 34:0.162414 35:-0.900291 36:-0.916367 37:0.683053 38:0.738928 39:-0.484922 40:-0.671541 41:-0.550872 42:-0.765804 43:-0.00164382 44:0.00467268 
0.5 0.5 0.5 0.5 0.5 0.5 1:0.194806 2:-0.91917 3:-0.703728 4:-0.48524 5:-0.972634 6:-0.123555 7:0.364824 8:-0.973353 9:-0.307266 10:0.0110994 11:-0.7855 12:0.605803 13:-0.36345 14:-0.974544 15:0.053743 16:-0.565673 17:-0.307821 18:0.172981 19:-0.735575 20:0.971872 21:-0.39979 22:-0.185125 23:-0.19291 24:-0.104961 25:0.99978 26:0.723141 27:0.970496 28:-0.411326 29:-0.144749 30:-0.983249 31:0.0417969 32:-0.0858805 33:0.645594 34:0.162414 35:-0.900291 36:-0.916367 37:0.683053 38:0.738928 39:-0.484922 40:-0.671541 41:-0.550872 42:-0.765804 43:-0.00164382 44:0.00467268 
0.5 0.5 0.5 0.5 0.5 0.5 1:0.207118 2:-0.903648 3:-0.68194 4:-0.520159 5:-0.97195 6:-0.204619 7:0.364812 8:-0.973326 9:-0.249533 10:0.0123518 11:-0.783258 12:0.621677 13:-0.363129 14:-0.975394 15:0.0745841 16:-0.55345 17:-0.345946 18:0.171538 19:-0.734369 20:0.968944 21:-0.350081 22:-0.179574 23:-0.192957 24:-0.115158 25:0.999951 26:0.725165 27:0.966736 28:-0.380803 29:-0.155472 30:-0.985116 31:0.0592369 32:-0.0887499 33:0.645594 34:0.162414 35:-0.900291 36:-0.916367 37:0.683053 38:0.738928 39:-0.484922 40:-0.671541 41:-0.550872 42:-0.765804 43:-0.00164382 44:0.00467268 
0.5 0.5 0.5 0.5 0.5 0.5 1:0.208446 2:-0.917899 3:-0.683758 4:-0.489922 5:-0.972539 6:-0.117507 7:0.364662 8:-0.973066 9:-0.302078 10:0.0138186 11:-0.783181 12:0.620496 13:-0.363227 14:-0.974314 15:0.0315305 16:-0.551643 17:-0.318724 18:0.186598 19:-0.734528 20:0.971472 21:-0.374131 22:-0.17429 23:-0.192848 24:-0.118535 25:1 26:0.724426 27:0.969858 28:-0.394032 29:-0.159711 30:-0.985199 31:0.0419206 32:-0.0849948 33:0.645594 34:0.162414 35:-0.900291 36:-0.916367 37:0.683053 38:0.738928 39:-0.484922 40:-0.671541 41:-0.550872 42:-0.765804 43:-0.00164382 44:0.00467268 
0.5 0.5 0.5 0.5 0.5 0.5 1:0.200066 2:-0.904565 3:-0.691117 4:-0.479493 5:-0.972549 6:-0.118154 7:0.364738 8:-0.973144 9:-0.309366 10:0.00572541 11:-0.785281 12:0.611772 13:-0.363455 14:-0.974437 15:0.0394643 16:-0.576682 17:-0.330698 18:0.193606 19:-0.734949 20:0.971354 21:-0.37993 22:-0.179296 23:-0.192884 24:-0.117616 25:0.99998 26:0.723809 27:0.969699 28:-0.397031 29:-0.161674 30:-0.985293 31:0.0359383 32:-0.0837461 33:0.645594 34:0.162414 35:-0.900291 36:-0.916367 37:0.683053 38:0.738928 39:-0.484922 40:-0.671541 41:-0.550872 42:-0.765804 43:-0.00164382 44:0.00467268 
0.5 0.5 0.5 0 0.5 0.5 1:0.200651 2:-0.903286 3:-0.705599 4:-0.486916 5:-0.972665 6:-0.120743 7:0.364787 8:-0.973568 9:-0.305654 10:-0.0045829 11:-0.786482 12:0.61158 13:-0.363392 14:-0.974908 15:0.0428052 16:-0.567534 17:-0.38137 18:0.185961 19:-0.735448 20:0.970841 21:-0.383513 22:-0.189182 23:-0.192987 24:-0.116612 25:0.999921 26:0.723388 27:0.969238 28:-0.400858 29:-0.164289 30:-0.985397 31:0.0255864 32:-0.0817805 33:0.645594 34:0.162414 35:-0.900291 36:-0.916367 37:0.683053 38:0.738928 39:-0.484922 40:-0.671541 41:-0.550872 42:-0.765804 43:-0.00164382 44:0.00467268 
0.5 0.5 0.5 0.5 0.5 0.5 1:0.208689 2:-0.919591 3:-0.704079 4:-0.489776 5:-0.973175 6:-0.130867 7:0.364741 8:-0.973673 9:-0.286953 10:-0.000111296 11:-0.785048 12:0.618589 13:-0.363297 14:-0.974591 15:0.0571614 16:-0.574399 17:-0.291839 18:0.192165 19:-0.735775 20:0.972164 21:-0.389413 22:-0.205567 23:-0.193122 24:-0.108399 25:0.99965 26:0.723314 27:0.970987 28:-0.406671 29:-0.17632 30:-0.986983 31:0.0402596 32:-0.0836228 33:0.645594 34:0.162414 35:-0.900291 36:-0.916367 37:0.683053 38:0.738928 39:-0.484922 40:-0.671541 41:-0.550872 42:-0.765804 43:-0.00164382 44:0.00467268 
0.5 0.5 0.5 0.5 0.5 0.5 1:0.212407 2:-0.920892 3:-0.691866 4:-0.481675 5:-0.972284 6:-0.114327 7:0.364606 8:-0.97297 9:-0.312542 10:0.00953521 11:-0.781134 12:0.63823 13:-0.363297 14:-0.974187 15:0.0294802 16:-0.574537 17:-0.338379 18:0.189155 19:-0.735834 20:0.970901 21:-0.377453 22:-0.203702 23:-0.193076 24:-0.105712 25:0.999631 26:0.723677 27:0.969386 28:-0.396323 29:-0.17392 30:-0.986798 31:0.0471424 32:-0.084927 33:0.645594 34:0.162414 35:-0.900291 36:-0.916367 37:0.683053 38:0.738928 39:-0.484922 40:-0.671541 41:-0.550872 42:-0.765804 43:-0.00164382 44:0.00467268 
0.5 0.5 0.5 0.5 0.5 0.5 1:0.20769 2:-0.906332 3:-0.689871 4:-0.479413 5:-0.972457 6:-0.108245 7:0.364489 8:-0.973126 9:-0.337627 10:0.0109651 11:-0.781911 12:0.631791 13:-0.363204 14:-0.974334 15:0.0414245 16:-0.569182 17:-0.335122 18:0.194178 19:-0.73616 20:0.97111 21:-0.385817 22:-0.200043 23:-0.192966 24:-0.103469 25:0.999634 26:0.723831 27:0.96961 28:-0.397751 29:-0.168363 30:-0.986031 31:0.0431776 32:-0.0843702 33:0.645594 34:0.162414 35:-0.900291 36:-0.916367 37:0.683053 38:0.738928 39:-0.484922 40:-0.671541 41:-0.550872 42:-0.765804 43:-0.00164382 44:0.00467268 
0.5 0.5 0.5 0.5 0.5 0.5 1:0.204983 2:-0.909447 3:-0.692442 4:-0.475346 5:-0.972803 6:-0.113023 7:0.364311 8:-0.973682 9:-0.294178 10:0.00556633 11:-0.782044 12:0.635414 13:-0.363106 14:-0.9751 15:0.0176787 16:-0.571812 17:-0.371693 18:0.175866 19:-0.736287 20:0.970548 21:-0.353046 22:-0.190951 23:-0.193006 24:-0.102796 25:0.999709 26:0.722636 27:0.968614 28:-0.40176 29:-0.1664 30:-0.986266 31:0.0531629 32:-0.0868215 33:0.645594 34:0.162414 35:-0.900291 36:-0.916367 37:0.683053 38:0.738928 39:-0.484922 40:-0.671541 41:-0.550872 42:-0.765804 43:-0.00164382 44:0.00467268 
0.5 0.5 0.5 0.5 0.5 0.5 1:0.2039 2:-0.913486 3:-0.696087 4:-0.493506 5:-0.973634 6:-0.114101 7:0.364717 8:-0.974351 9:-0.310304 10:0.00849988 11:-0.782545 12:0.630139 13:-0.363221 14:-0.975585 15:0.0296244 16:-0.554196 17:-0.353194 18:0.184667 19:-0.734631 20:0.972416 21:-0.390601 22:-0.193349 23:-0.192959 24:-0.110452 25:0.999808 26:0.724878 27:0.970931 28:-0.41433 29:-0.179173 30:-0.987577 31:0.0525737 32:-0.0858836 33:0.645594 34:0.162414 35:-0.900291 36:-0.916367 37:0.683053 38:0.738928 39:-0.484922 40:-0.671541 41:-0.550872 42:-0.765804 43:-0.00164382 44:0.00467268 
0.5 0.5 0.5 0.5 0.5 0.5 1:0.210805 2:-0.910622 3:-0.689233 4:-0.492258 5:-0.974697 6:-0.122033 7:0.364663 8:-0.97561 9:-0.305787 10:0.00988911 11:-0.781289 12:0.638552 13:-0.363202 14:-0.976908 15:0.0413411 16:-0.565334 17:-0.369053 18:0.193584 19:-0.73577 20:0.972827 21:-0.400487 22:-0.225893 23:-0.193329 24:-0.106142 25:0.999273 26:0.723745 27:0.97128 28:-0.418701 29:-0.197411 30:-0.989727 31:0.0767897 32:-0.0898645 33:0.645594 34:0.162414 35:-0.900291 36:-0.916367 37:0.683053 38:0.738928 39:-0.484922 40:-0.671541 41:-0.550872 42:-0.765804 43:-0.00164382 44:0.00467268 
0.5 0.5 0.5 0.5 0.5 0.5 1:0.22368 2:-0.922735 3:-0.673555 4:-0.467995 5:-0.972222 6:-0.128346 7:0.364503 8:-0.972968 9:-0.322305 10:0.0195159 11:-0.774796 12:0.671937 13:-0.363204 14:-0.974307 15:0.022144 16:-0.567827 17:-0.351856 18:0.221312 19:-0.735122 20:0.970697 21:-0.382077 22:-0.238272 23:-0.193533 24:-0.106785 25:0.998998 26:0.723554 27:0.969001 28:-0.402949 29:-0.214339 30:-0.991592 31:0.0950319 32:-0.0935458 33:0.645594 34:0.162414 35:-0.900291 36:-0.916367 37:0.683053 38:0.738928 39:-0.484922 40:-0.671541 41:-0.550872 42:-0.765804 43:-0.00164382 44:0.00467268 
0.5 0 0.5 0.5 0.5 0.5 1:0.220803 2:-0.919599 3:-0.683204 4:-0.475236 5:-0.972105 6:-0.103773 7:0.364734 8:-0.973029 9:-0.325133 10:0.0162951 11:-0.775499 12:0.669992 13:-0.363524 14:-0.974437 15:0.0181726 16:-0.566622 17:-0.36611 18:0.234298 19:-0.735631 20:0.970243 21:-0.384917 22:-0.246063 23:-0.193533 24:-0.101937 25:0.998706 26:0.722768 27:0.968531 28:-0.403813 29:-0.213408 30:-0.991477 31:0.0936357 32:-0.0932213 33:0.645594 34:0.162414 35:-0.900291 36:-0.916367 37:0.683053 38:0.738928 39:-0.484922 40:-0.671541 41:-0.550872 42:-0.765804 43:-0.00164382 44:0.00467268 
0.5 0.5 0.5 0.5 0.5 0.5 1:0.216635 2:-0.919627 3:-0.679146 4:-0.479307 5:-0.972283 6:-0.109095 7:0.364766 8:-0.973001 9:-0.326127 10:0.0182541 11:-0.775468 12:0.668752 13:-0.3635 14:-0.974299 15:0.0352371 16:-0.55973 17:-0.340828 18:0.233715 19:-0.735481 20:0.970835 21:-0.384225 22:-0.240219 23:-0.193426 24:-0.102124 25:0.998868 26:0.723347 27:0.969227 28:-0.399414 29:-0.213489 30:-0.991484 31:0.0900364 32:-0.0925171 33:0.645594 34:0.162414 35:-0.900291 36:-0.916367 37:0.683053 38:0.738928 39:-0.484922 40:-0.671541 41:-0.550872 42:-0.765804 43:-0.00164382 44:0.00467268 
0.5 0.5 0.5 0 0.5 0.5 1:0.213802 2:-0.918519 3:-0.685884 4:-0.482502 5:-0.972483 6:-0.106177 7:0.364701 8:-0.973255 9:-0.321034 10:0.0136956 11:-0.775763 12:0.670288 13:-0.36338 14:-0.974758 15:0.0219611 16:-0.559327 17:-0.365682 18:0.221254 19:-0.73464 20:0.970911 21:-0.386493 22:-0.234344 23:-0.193702 24:-0.118493 25:0.999259 26:0.72419 27:0.969037 28:-0.405159 29:-0.225499 30:-0.992894 31:0.0880918 32:-0.0927653 33:0.645594 34:0.162414 35:-0.900291 36:-0.916367 37:0.683053 38:0.738928 39:-0.484922 40:-0.671541 41:-0.550872 42:-0.765804 43:-0.00164382 44:0.00467268 
0.5 0 0.5 0 0.5 0.5 1:0.215106 2:-0.909319 3:-0.685196 4:-0.48787 5:-0.972465 6:-0.104957 7:0.364817 8:-0.973353 9:-0.329996 10:0.00273848 11:-0.776659 12:0.672452 13:-0.363389 14:-0.974808 15:0.0302542 16:-0.571011 17:-0.357712 18:0.225143 19:-0.734933 20:0.970676 21:-0.39625 22:-0.246061 23:-0.194134 24:-0.134736 25:0.999098 26:0.724059 27:0.968917 28:-0.411511 29:-0.232454 30:-0.993796 31:0.0745212 32:-0.0908753 33:0.645594 34:0.162414 35:-0.900291 36:-0.916367 37:0.683053 38:0.738928 39:-0.484922 40:-0.671541 41:-0.550872 42:-0.765804 43:-0.00164382 44:0.00467268 
0 0 0.5 0 0.5 0 1:0.211843 2:-0.921026 3:-0.681834 4:-0.479427 5:-0.972161 6:-0.109883 7:0.364681 8:-0.97285 9:-0.317637 10:-0.00299704 11:-0.774965 12:0.686199 13:-0.363414 14:-0.974159 15:0.0301371 16:-0.583936 17:-0.334932 18:0.232529 19:-0.735575 20:0.970744 21:-0.380415 22:-0.251343 23:-0.19412 24:-0.13256 25:0.998927 26:0.723685 27:0.969126 28:-0.39763 29:-0.239996 30:-0.994593 31:0.0720427 32:-0.0909245 33:0.645594 34:0.162414 35:-0.900291 36:-0.916367 37:0.683053 38:0.738928 39:-0.484922 40:-0.671541 41:-0.550872 42:-0.765804 43:-0.00164382 44:0.00467268 
0.2876022773807621 0 0.5 0 0.5 0 1:0.202042 2:-0.932656 3:-0.69054 4:-0.482182 5:-0.972149 6:-0.111618 7:0.364579 8:-0.972966 9:-0.304256 10:-0.00717605 11:-0.776077 12:0.682369 13:-0.363263 14:-0.974307 15:0.022048 16:-0.58867 17:-0.340401 18:0.220965 19:-0.735514 20:0.970498 21:-0.380345 22:-0.233389 23:-0.194284 24:-0.142714 25:0.999471 26:0.723488 27:0.968867 28:-0.401878 29:-0.238534 30:-0.994648 31:0.0625341 32:-0.089521 33:0.645594 34:0.162414 35:-0.900291 36:-0.916367 37:0.683053 38:0.738928 39:-0.484922 40:-0.671541 41:-0.550872 42:-0.765804 43:-0.00164382 44:0.00467268 
0.5 0 0.5 0.5 0.5 0.5 1:0.210218 2:-0.925683 3:-0.692623 4:-0.470676 5:-0.972287 6:-0.104214 7:0.364606 8:-0.973111 9:-0.343395 10:-0.0036699 11:-0.776105 12:0.679933 13:-0.363434 14:-0.974398 15:0.0368401 16:-0.606912 17:-0.312189 18:0.221084 19:-0.736109 20:0.970619 21:-0.391787 22:-0.240795 23:-0.194043 24:-0.131681 25:0.999223 26:0.722551 27:0.969062 28:-0.403714 29:-0.235918 30:-0.99409 31:0.0759897 32:-0.0912309 33:0.645594 34:0.162414 35:-0.900291 36:-0.916367 37:0.683053 38:0.738928 39:-0.484922 40:-0.671541 41:-0.550872 42:-0.765804 43:-0.00164382 44:0.00467268 
0 0 0 0.159159702941868 0.5 0.3225489191597228 1:0.220641 2:-0.927173 3:-0.69258 4:-0.480973 5:-0.972305 6:-0.106803 7:0.364683 8:-0.973254 9:-0.332777 10:-0.00611805 11:-0.774665 12:0.690215 13:-0.36337 14:-0.974626 15:0.0335997 16:-0.604758 17:-0.326715 18:0.207281 19:-0.736055 20:0.970386 21:-0.387654 22:-0.245741 23:-0.193947 24:-0.125222 25:0.999032 26:0.723362 27:0.968757 28:-0.402193 29:-0.238085 30:-0.994055 31:0.0918626 32:-0.0939218 33:0.645594 34:0.162414 35:-0.900291 36:-0.916367 37:0.683053 38:0.738928 39:-0.484922 40:-0.671541 41:-0.550872 42:-0.765804 43:-0.00164382 44:0.00467268 
0 0 0.5 0.5 0.5 0.5 1:0.225779 2:-0.925722 3:-0.679985 4:-0.482794 5:-0.972629 6:-0.10916 7:0.36451 8:-0.97338 9:-0.334695 10:-0.00434148 11:-0.773678 12:0.694831 13:-0.363175 14:-0.974498 15:0.0408987 16:-0.598803 17:-0.293903 18:0.195592 19:-0.736616 20:0.971107 21:-0.393304 22:-0.257711 23:-0.193838 24:-0.11657 25:0.998567 26:0.723341 27:0.969759 28:-0.405857 29:-0.243202 30:-0.994289 31:0.105365 32:-0.0965018 33:0.645594 34:0.162414 35:-0.900291 36:-0.916367 37:0.683053 38:0.738928 39:-0.484922 40:-0.671541 41:-0.550872 42:-0.765804 43:-0.00164382 44:0.00467268 
0 0 0.5 0.5 0.5 0.5 1:0.214827 2:-0.931382 3:-0.671704 4:-0.49063 5:-0.972626 6:-0.122985 7:0.364361 8:-0.973092 9:-0.297275 10:0.00123331 11:-0.770706 12:0.708033 13:-0.362926 14:-0.974035 15:0.0347209 16:-0.58012 17:-0.252428 18:0.197074 19:-0.736099 20:0.971708 21:-0.383739 22:-0.271496 23:-0.193653 24:-0.10231 25:0.997857 26:0.724217 27:0.970483 28:-0.404527 29:-0.247596 30:-0.994465 31:0.120356 32:-0.0995892 33:0.645594 34:0.162414 35:-0.900291 36:-0.916367 37:0.683053 38:0.738928 39:-0.484922 40:-0.671541 41:-0.550872 42:-0.765804 43:-0.00164382 44:0.00467268 
0 0 0 0 0 0.5 1:0.211408 2:-0.938115 3:-0.666566 4:-0.469466 5:-0.972297 6:-0.0776644 7:0.364277 8:-0.973292 9:-0.348554 10:0.0117974 11:-0.76821 12:0.715324 13:-0.362975 14:-0.974781 15:0.0258485 16:-0.597851 17:-0.372989 18:0.197397 19:-0.736504 20:0.970467 21:-0.388029 22:-0.274031 23:-0.193613 24:-0.101287 25:0.997739 26:0.724434 27:0.968674 28:-0.399031 29:-0.24717 30:-0.994024 31:0.129982 32:-0.101045 33:0.645594 34:0.162414 35:-0.900291 36:-0.916367 37:0.683053 38:0.738928 39:-0.484922 40:-0.671541 41:-0.550872 42:-0.765804 43:-0.00164382 44:0.00467268 
0 0.1766090026634377 0 0 0 0 1:0.20931 2:-0.922282 3:-0.679156 4:-0.476281 5:-0.972207 6:-0.10333 7:0.364789 8:-0.973115 9:-0.343413 10:-0.0190241 11:-0.773423 12:0.705273 13:-0.36355 14:-0.974521 15:0.0303943 16:-0.598794 17:-0.3856 18:0.16561 19:-0.735482 20:0.970357 21:-0.3865 22:-0.276213 23:-0.193352 24:-0.0920537 25:0.997467 26:0.722747 27:0.968667 28:-0.399752 29:-0.222612 30:-0.991843 31:0.102333 32:-0.0942106 33:0.645594 34:0.162414 35:-0.900291 36:-0.916367 37:0.683053 38:0.738928 39:-0.484922 40:-0.671541 41:-0.550872 42:-0.765804 43:-0.00164382 44:0.00467268 
0 0.5 0 0 0.5 0 1:0.202897 2:-0.918078 3:-0.672306 4:-0.480944 5:-0.972521 6:-0.108186 7:0.364844 8:-0.973151 9:-0.326367 10:-0.0232861 11:-0.773809 12:0.705639 13:-0.363533 14:-0.974237 15:0.0297421 16:-0.593472 17:-0.328937 18:0.149182 19:-0.735525 20:0.971268 21:-0.386604 22:-0.270208 23:-0.193384 24:-0.0960991 25:0.997785 26:0.722763 27:0.969907 28:-0.40324 29:-0.22317 30:-0.991917 31:0.104151 32:-0.0946311 33:0.645594 34:0.162414 35:-0.900291 36:-0.916367 37:0.683053 38:0.738928 39:-0.484922 40:-0.671541 41:-0.550872 42:-0.765804 43:-0.00164382 44:0.00467268 
0 0.5 0 0 0 0 1:0.205983 2:-0.926786 3:-0.669044 4:-0.477791 5:-0.972856 6:-0.107854 7:0.364813 8:-0.973509 9:-0.330542 10:-0.0187803 11:-0.77268 12:0.709457 13:-0.363544 14:-0.974672 15:0.032107 16:-0.590283 17:-0.349076 18:0.149558 19:-0.735544 20:0.971558 21:-0.386254 22:-0.262804 23:-0.193237 24:-0.0958647 25:0.998048 26:0.722969 27:0.970098 28:-0.40153 29:-0.22303 30:-0.991744 31:0.112445 32:-0.0960995 33:0.645594 34:0.162414 35:-0.900291 36:-0.916367 37:0.683053 38:0.738928 39:-0.484922 40:-0.671541 41:-0.550872 42:-0.765804 43:-0.00164382 44:0.00467268 
0 0.5 0 0 0 0 1:0.207506 2:-0.928794 3:-0.664392 4:-0.490893 5:-0.973576 6:-0.113188 7:0.364803 8:-0.974387 9:-0.318962 10:-0.0197755 11:-0.772299 12:0.712625 13:-0.363366 14:-0.975597 15:0.0311495 16:-0.569531 17:-0.346755 18:0.1481 19:-0.735395 20:0.971926 21:-0.394238 22:-0.278861 23:-0.193477 24:-0.0936391 25:0.997394 26:0.723164 27:0.970468 28:-0.412099 29:-0.236958 30:-0.993184 31:0.123894 32:-0.0992851 33:0.645594 34:0.162414 35:-0.900291 36:-0.916367 37:0.683053 38:0.738928 39:-0.484922 40:-0.671541 41:-0.550872 42:-0.765804 43:-0.00164382 44:0.00467268 
0 0 0.5 0 0 0 1:0.206782 2:-0.934892 3:-0.662574 4:-0.482279 5:-0.973427 6:-0.120027 7:0.364772 8:-0.974186 9:-0.302851 10:-0.00989214 11:-0.767873 12:0.730655 13:-0.36345 14:-0.975383 15:0.0419759 16:-0.562808 17:-0.324517 18:0.17347 19:-0.735711 20:0.971882 21:-0.397528 22:-0.292606 23:-0.193863 24:-0.0973066 25:0.99687 26:0.722965 27:0.970425 28:-0.415012 29:-0.253442 30:-0.9942 31:0.155185 32:-0.106862 33:0.645594 34:0.162414 35:-0.900291 36:-0.916367 37:0.683053 38:0.738928 39:-0.484922 40:-0.671541 41:-0.550872 42:-0.765804 43:-0.00164382 44:0.00467268 
0 0 0.5 0 0 0 1:0.214044 2:-0.951781 3:-0.652144 4:-0.482418 5:-0.972112 6:-0.102162 7:0.364723 8:-0.972875 9:-0.341228 10:-0.0035661 11:-0.762398 12:0.754399 13:-0.363391 14:-0.974149 15:0.0298246 16:-0.568043 17:-0.324224 18:0.185081 19:-0.735657 20:0.970564 21:-0.384742 22:-0.30625 23:-0.193937 24:-0.0933679 25:0.996119 26:0.723524 27:0.969006 28:-0.398423 29:-0.257463 30:-0.994455 31:0.159901 32:-0.108186 33:0.645594 34:0.162414 35:-0.900291 36:-0.916367 37:0.683053 38:0.738928 39:-0.484922 40:-0.671541 41:-0.550872 42:-0.765804 43:-0.00164382 44:0.00467268 
0 0 0.5 0 0 0 1:0.208486 2:-0.934035 3:-0.660058 4:-0.489711 5:-0.972461 6:-0.0919107 7:0.364786 8:-0.973397 9:-0.350107 10:-0.00409682 11:-0.763363 12:0.750142 13:-0.363339 14:-0.974903 15:0.0128499 16:-0.556547 17:-0.365473 18:0.192755 19:-0.734931 20:0.97057 21:-0.383569 22:-0.302683 23:-0.194152 24:-0.0995806 25:0.996428 26:0.724309 27:0.968748 28:-0.399309 29:-0.265231 30:-0.995353 31:0.162857 32:-0.109975 33:0.645594 34:0.162414 35:-0.900291 36:-0.916367 37:0.683053 38:0.738928 39:-0.484922 40:-0.671541 41:-0.550872 42:-0.765804 43:-0.00164382 44:0.00467268 
0 0 0.5 0 0.5 0 1:0.209396 2:-0.923573 3:-0.673574 4:-0.487098 5:-0.972401 6:-0.114641 7:0.364603 8:-0.972999 9:-0.319393 10:-0.022455 11:-0.769121 12:0.730529 13:-0.36321 14:-0.973899 15:0.0382613 16:-0.570982 17:-0.276973 18:0.176447 19:-0.736279 20:0.971319 21:-0.386344 22:-0.291968 23:-0.194259 24:-0.106625 25:0.997072 26:0.723818 27:0.970024 28:-0.403229 29:-0.255113 30:-0.995171 31:0.136265 32:-0.10378 33:0.645594 34:0.162414 35:-0.900291 36:-0.916367 37:0.683053 38:0.738928 39:-0.484922 40:-0.671541 41:-0.550872 42:-0.765804 43:-0.00164382 44:0.00467268 
0 0.03131403316390516 0.4251437935417818 0 0 0 1:0.212549 2:-0.924416 3:-0.680831 4:-0.48358 5:-0.972295 6:-0.103314 7:0.364589 8:-0.972918 9:-0.314672 10:-0.0304232 11:-0.770011 12:0.730254 13:-0.363247 14:-0.97423 15:0.0108618 16:-0.575166 17:-0.286547 18:0.164175 19:-0.734825 20:0.971011 21:-0.376856 22:-0.271474 23:-0.194358 24:-0.116803 25:0.998089 26:0.723829 27:0.969366 28:-0.398403 29:-0.246498 30:-0.99445 31:0.126503 32:-0.101037 33:0.645594 34:0.162414 35:-0.900291 36:-0.916367 37:0.683053 38:0.738928 39:-0.484922 40:-0.671541 41:-0.550872 42:-0.765804 43:-0.00164382 44:0.00467268 
0 0.5 0.5 0 0.5 0 1:0.205375 2:-0.913984 3:-0.684075 4:-0.484529 5:-0.97215 6:-0.0992459 7:0.364812 8:-0.972738 9:-0.340135 10:-0.0324636 11:-0.772275 12:0.719193 13:-0.363457 14:-0.973647 15:0.00837752 16:-0.57253 17:-0.290789 18:0.163311 19:-0.73499 20:0.971906 21:-0.399245 22:-0.266342 23:-0.194449 24:-0.121896 25:0.998341 26:0.723988 27:0.970881 28:-0.421089 29:-0.249187 30:-0.995116 31:0.11365 32:-0.09909 33:0.645594 34:0.162414 35:-0.900291 36:-0.916367 37:0.683053 38:0.738928 39:-0.484922 40:-0.671541 41:-0.550872 42:-0.765804 43:-0.00164382 44:0.00467268 
0 0 0.5 0 0 0 1:0.212252 2:-0.930284 3:-0.672654 4:-0.474051 5:-0.972327 6:-0.117081 7:0.364657 8:-0.972876 9:-0.315774 10:-0.0373424 11:-0.771102 12:0.728233 13:-0.36357 14:-0.973339 15:0.0218644 16:-0.576621 17:-0.246853 18:0.182332 19:-0.734806 20:0.972793 21:-0.343968 22:-0.271864 23:-0.194529 24:-0.120582 25:0.998122 26:0.724399 27:0.971585 28:-0.372809 29:-0.240954 30:-0.994731 31:0.0978607 32:-0.0959483 33:0.645594 34:0.162414 35:-0.900291 36:-0.916367 37:0.683053 38:0.738928 39:-0.484922 40:-0.671541 41:-0.550872 42:-0.765804 43:-0.00164382 44:0.00467268 
0 0.5 0 0 0 0 1:0.214606 2:-0.924174 3:-0.675883 4:-0.48153 5:-0.972212 6:-0.102022 7:0.364693 8:-0.972794 9:-0.346905 10:-0.0402109 11:-0.772984 12:0.719627 13:-0.363381 14:-0.974002 15:0.0332549 16:-0.581468 17:-0.255403 18:0.173247 19:-0.735438 20:0.971 21:-0.386573 22:-0.274048 23:-0.194487 24:-0.121806 25:0.998047 26:0.723643 27:0.969485 28:-0.398961 29:-0.234175 30:-0.994242 31:0.0743118 32:-0.0913874 33:0.645594 34:0.162414 35:-0.900291 36:-0.916367 37:0.683053 38:0.738928 39:-0.484922 40:-0.671541 41:-0.550872 42:-0.765804 43:-0.00164382 44:0.00467268 
0 0 0 0 0.5 0 1:0.213298 2:-0.915841 3:-0.681078 4:-0.470424 5:-0.9726 6:-0.0551697 7:0.364595 8:-0.97257 9:-0.428915 10:-0.08128 11:-0.770681 12:0.751939 13:-0.363347 14:-0.972228 15:0.0896274 16:-0.598249 17:-0.223301 18:0.211031 19:-0.738617 20:0.97298 21:-0.45486 22:-0.324864 23:-0.195629 24:-0.150667 25:0.995711 26:0.719368 27:0.973472 28:-0.423524 29:-0.288682 30:-0.998306 31:0.100748 32:-0.0998799 33:0.645594 34:0.162414 35:-0.900291 36:-0.916367 37:0.683053 38:0.738928 39:-0.484922 40:-0.671541 41:-0.550872 42:-0.765804 43:-0.00164382 44:0.00467268 
0 0 0.5 0 0 0 1:0.226273 2:-0.912788 3:-0.676339 4:-0.482069 5:-0.972258 6:-0.0996616 7:0.364515 8:-0.972937 9:-0.350644 10:-0.0615767 11:-0.770123 12:0.745798 13:-0.363239 14:-0.973575 15:0.0503571 16:-0.593992 17:-0.212653 18:0.22118 19:-0.736623 20:0.971941 21:-0.375231 22:-0.303298 23:-0.195575 24:-0.146691 25:0.996896 26:0.722583 27:0.971128 28:-0.369622 29:-0.274943 30:-0.997272 31:0.101804 32:-0.098658 33:0.645594 34:0.162414 35:-0.900291 36:-0.916367 37:0.683053 38:0.738928 39:-0.484922 40:-0.671541 41:-0.550872 42:-0.765804 43:-0.00164382 44:0.00467268 
0 0 0 0 0.01682390555145395 0 1:0.21983 2:-0.916311 3:-0.672959 4:-0.40385 5:-0.971648 6:-0.0454936 7:0.364395 8:-0.973423 9:-0.446498 10:-0.0661496 11:-0.770512 12:0.74632 13:-0.363736 14:-0.975568 15:0.0948582 16:-0.587979 17:-0.256867 18:0.206261 19:-0.740194 20:0.967322 21:-0.451616 22:-0.320424 23:-0.194883 24:-0.132629 25:0.995892 26:0.716551 27:0.965371 28:-0.413929 29:-0.268007 30:-0.995685 31:0.118112 32:-0.0997179 33:0.645594 34:0.162414 35:-0.900291 36:-0.916367 37:0.683053 38:0.738928 39:-0.484922 40:-0.671541 41:-0.550872 42:-0.765804 43:-0.00164382 44:0.00467268 
0 0 0 0 0.5 0 1:0.234607 2:-0.886754 3:-0.67651 4:-0.49434 5:-0.972175 6:-0.105464 7:0.364543 8:-0.972837 9:-0.420713 10:-0.0680058 11:-0.771141 12:0.743599 13:-0.363098 14:-0.973426 15:0.161604 16:-0.579207 17:-0.233897 18:0.196087 19:-0.737281 20:0.970817 21:-0.431396 22:-0.308826 23:-0.195114 24:-0.140126 25:0.996579 26:0.720703 27:0.970324 28:-0.384802 29:-0.25963 30:-0.995106 31:0.107805 32:-0.0970225 33:0.645594 34:0.162414 35:-0.900291 36:-0.916367 37:0.683053 38:0.738928 39:-0.484922 40:-0.671541 41:-0.550872 42:-0.765804 43:-0.00164382 44:0.00467268 
-0 0.5 0 0 0 0 1:0.145517 2:-0.603079 3:-0.771368 4:-0.464297 5:-0.66674 6:-0.0618979 7:0.476995 8:-0.667248 9:-0.346863 10:0.200652 11:-0.934797 12:0.369232 13:-0.475311 14:-0.668712 15:0.023351 16:-0.799627 17:-0.6497 18:-0.0681073 19:-0.515398 20:0.666589 21:-0.383238 22:0.977665 23:-0.308915 24:-0.0907851 25:0.713875 26:0.501752 27:0.666344 28:-0.396678 29:0.923832 30:0.327828 31:-0.193498 32:-0.345327 33:0.881543 34:0.377382 35:-0.796696 36:-0.791228 37:-0.409218 38:-0.399107 39:-0.938239 40:-1 41:0.151603 42:0.0703571 43:-0.773143 44:-0.805874 
-0 0.5 0 0 0 0 1:0.150133 2:-0.6162 3:-0.777773 4:-0.484 5:-0.666589 6:-0.0909701 7:0.476868 8:-0.667651 9:-0.330265 10:0.220738 11:-0.948437 12:0.377612 13:-0.475158 14:-0.66957 15:-0.00140452 16:-0.77437 17:-0.675963 18:-0.0842951 19:-0.51036 20:0.665602 21:-0.384422 22:1 23:-0.312032 24:-0.0767842 25:0.700596 26:0.497562 27:0.664888 28:-0.406303 29:0.943143 30:0.331177 31:-0.201506 32:-0.395348 33:0.881543 34:0.377382 35:-0.796696 36:-0.791228 37:-0.409218 38:-0.399107 39:-0.938239 40:-1 41:0.151603 42:0.0703571 43:-0.773143 44:-0.805874 
-0 0.5 0 0 0 0 1:0.154718 2:-0.612962 3:-0.796104 4:-0.483711 5:-0.667251 6:-0.0933009 7:0.476963 8:-0.667758 9:-0.309259 10:0.226382 11:-0.917223 12:0.38292 13:-0.475312 14:-0.668955 15:0.0420326 16:-0.760514 17:-0.561803 18:-0.0501456 19:-0.502081 20:0.668163 21:-0.39395 22:0.980838 23:-0.304187 24:-0.0941495 25:0.712661 26:0.488572 27:0.668141 28:-0.411387 29:0.926369 30:0.332601 31:-0.191 32:-0.351077 33:0.881543 34:0.377382 35:-0.796696 36:-0.791228 37:-0.409218 38:-0.399107 39:-0.938239 40:-1 41:0.151603 42:0.0703571 43:-0.773143 44:-0.805874 
-0 0.5 0 0 0 0 1:0.142222 2:-0.603131 3:-0.764431 4:-0.484426 5:-0.666818 6:-0.0981405 7:0.476742 8:-0.667355 9:-0.340429 10:0.207924 11:-0.919765 12:0.35964 13:-0.475022 14:-0.668597 15:0.0177663 16:-0.74971 17:-0.601658 18:-0.0562404 19:-0.484802 20:0.666875 21:-0.383457 22:0.967826 23:-0.307223 24:-0.0773551 25:0.719054 26:0.469956 27:0.666914 28:-0.399905 29:0.90667 30:0.332733 31:-0.19101 32:-0.301329 33:0.881543 34:0.377382 35:-0.796696 36:-0.791228 37:-0.409218 38:-0.399107 39:-0.938239 40:-1 41:0.151603 42:0.0703571 43:-0.773143 44:-0.805874 
-0 0.5 0 0 0 0 1:0.132422 2:-0.614755 3:-0.768596 4:-0.479066 5:-0.666637 6:-0.0971586 7:0.476505 8:-0.667197 9:-0.372685 10:0.237354 11:-0.936413 12:0.342586 13:-0.474873 14:-0.668778 15:0.0444714 16:-0.702206 17:-0.634058 18:-0.0491371 19:-0.44687 20:0.666661 21:-0.387691 22:0.973687 23:-0.300786 24:-0.0779355 25:0.716463 26:0.433833 27:0.66623 28:-0.39266 29:0.908206 30:0.342327 31:-0.201827 32:-0.304702 33:0.881543 34:0.377382 35:-0.796696 36:-0.791228 37:-0.409218 38:-0.399107 39:-0.938239 40:-1 41:0.151603 42:0.0703571 43:-0.773143 44:-0.805874 
-0.5 0.5 0 0.5 0.5 0.5 1:0.145136 2:-0.609144 3:-0.775223 4:-0.49632 5:-0.666958 6:-0.0971884 7:0.477047 8:-0.667712 9:-0.333996 10:0.228286 11:-0.934618 12:0.369709 13:-0.475148 14:-0.669562 15:0.0166365 16:-0.68009 17:-0.644253 18:-0.0844779 19:-0.37415 20:0.666581 21:-0.384899 22:0.979907 23:-0.30827 24:-0.0758223 25:0.712252 26:0.363593 27:0.665836 28:-0.402707 29:-0.139019 30:0.281896 31:-0.209547 32:0.970099 33:0.881543 34:0.377382 35:-0.796696 36:-0.791228 37:-0.409218 38:-0.399107 39:-0.938239 40:-1 41:0.151603 42:0.0703571 43:-0.773143 44:-0.805874 
-0.5 0.5 0 0.5 0.5 0.5 1:0.158923 2:-0.606257 3:-0.787201 4:-0.493529 5:-0.667598 6:-0.0951229 7:0.476934 8:-0.668468 9:-0.33541 10:0.206752 11:-0.925296 12:0.385684 13:-0.47508 14:-0.670507 15:0.00998632 16:-0.679124 17:-0.64047 18:-0.0688762 19:-0.322207 20:0.666926 21:-0.379537 22:0.994112 23:-0.301352 24:-0.103732 25:0.705709 26:0.312392 27:0.665921 28:-0.398813 29:0.00381254 30:0.288742 31:-0.216027 32:0.918826 33:0.881543 34:0.377382 35:-0.796696 36:-0.791228 37:-0.409218 38:-0.399107 39:-0.938239 40:-1 41:0.151603 42:0.0703571 43:-0.773143 44:-0.805874 
-0.5 0.5 0 0.5 0.5 0.5 1:0.171241 2:-0.612402 3:-0.799511 4:-0.489968 5:-0.668113 6:-0.126195 7:0.477105 8:-0.668372 9:-0.3007 10:0.179293 11:-0.930743 12:0.351105 13:-0.475304 14:-0.669881 15:0.0534376 16:-0.716958 17:-0.558323 18:-0.0628543 19:-0.364023 20:0.66875 21:-0.396593 22:0.983865 23:-0.296756 24:-0.134349 25:0.71229 26:0.353555 27:0.668285 28:-0.412682 29:0.184592 30:0.298633 31:-0.229716 32:0.80492 33:0.881543 34:0.377382 35:-0.796696 36:-0.791228 37:-0.409218 38:-0.399107 39:-0.938239 40:-1 41:0.151603 42:0.0703571 43:-0.773143 44:-0.805874 
-0.5 0.5 0 0.5 0.5 0.5 1:0.166726 2:-0.605884 3:-0.774364 4:-0.493723 5:-0.666613 6:-0.0959187 7:0.477208 8:-0.666961 9:-0.355211 10:0.176002 11:-0.972361 12:0.334846 13:-0.475311 14:-0.66845 15:0.0187335 16:-0.737027 17:-0.637838 18:-0.0721883 19:-0.413785 20:0.667038 21:-0.383768 22:0.96193 23:-0.29685 24:-0.149539 25:0.724374 26:0.402872 27:0.666687 28:-0.397977 29:0.380976 30:0.300088 31:-0.234848 32:0.614844 33:0.881543 34:0.377382 35:-0.796696 36:-0.791228 37:-0.409218 38:-0.399107 39:-0.938239 40:-1 41:0.151603 42:0.0703571 43:-0.773143 44:-0.805874 
-0 0.5 0 0.5 0.5 0.5 1:0.157412 2:-0.612337 3:-0.769028 4:-0.479305 5:-0.666791 6:-0.100312 7:0.477042 8:-0.667584 9:-0.333478 10:0.147167 11:-0.983122 12:0.338535 13:-0.475402 14:-0.669168 15:0.0172165 16:-0.745165 17:-0.646086 18:-0.0729662 19:-0.570116 20:0.666313 21:-0.386858 22:0.969791 23:-0.303367 24:-0.136499 25:0.719482 26:0.55595 27:0.665967 28:-0.40471 29:0.637041 30:0.3039 31:-0.227952 32:0.252116 33:0.881543 34:0.377382 35:-0.796696 36:-0.791228 37:-0.409218 38:-0.399107 39:-0.938239 40:-1 41:0.151603 42:0.0703571 43:-0.773143 44:-0.805874 
-0 0.5 0 0 0 0 1:0.155858 2:-0.611402 3:-0.776076 4:-0.463704 5:-0.66728 6:-0.0606919 7:0.476978 8:-0.668353 9:-0.374578 10:0.145461 11:-0.961175 12:0.354969 13:-0.475444 14:-0.669706 15:0.0119974 16:-0.729372 17:-0.625564 18:-0.0596669 19:-0.549278 20:0.665722 21:-0.375162 22:0.976547 23:-0.300936 24:-0.129646 25:0.715941 26:0.524615 27:0.666178 28:-0.373963 29:0.919917 30:0.325147 31:-0.21277 32:-0.33698 33:0.881543 34:0.377382 35:-0.796696 36:-0.791228 37:-0.409218 38:-0.399107 39:-0.938239 40:-1 41:0.151603 42:0.0703571 43:-0.773143 44:-0.805874 
-0 0.5 0 0 0 0 1:0.152579 2:-0.612908 3:-0.77649 4:-0.471248 5:-0.667823 6:-0.0515035 7:0.476987 8:-0.669023 9:-0.356181 10:0.186436 11:-0.95519 12:0.362444 13:-0.475381 14:-0.671667 15:-0.0227844 16:-0.715157 17:-0.612285 18:-0.0696341 19:-0.56981 20:0.66534 21:-0.330789 22:0.986046 23:-0.303391 24:-0.111287 25:0.710198 26:0.559101 27:0.662622 28:-0.336842 29:0.896521 30:0.328627 31:-0.212636 32:-0.278121 33:0.881543 34:0.377382 35:-0.796696 36:-0.791228 37:-0.409218 38:-0.399107 39:-0.938239 40:-1 41:0.151603 42:0.0703571 43:-0.773143 44:-0.805874 
-0 0.5 0 0.5 0.5 0.5 1:0.149301 2:-0.614551 3:-0.785329 4:-0.452968 5:-0.669376 6:-0.201951 7:0.476705 8:-0.669669 9:-0.297076 10:0.166682 11:-0.945853 12:0.354587 13:-0.475318 14:-0.670232 15:0.165704 16:-0.708402 17:-0.569629 18:-0.0601555 19:-0.616797 20:0.670253 21:-0.469858 22:0.982624 23:-0.305519 24:-0.109254 25:0.711869 26:0.596929 27:0.671025 28:-0.476113 29:0.63092 30:0.31915 31:-0.24301 32:0.263242 33:0.881543 34:0.377382 35:-0.796696 36:-0.791228 37:-0.409218 38:-0.399107 39:-0.938239 40:-1 41:0.151603 42:0.0703571 43:-0.773143 44:-0.805874 
-0 0.5 0 0 0 0 1:0.142585 2:-0.612489 3:-0.764086 4:-0.483361 5:-0.666342 6:-0.102796 7:0.476491 8:-0.666843 9:-0.312951 10:0.168298 11:-0.935162 12:0.37339 13:-0.474783 14:-0.668356 15:0.00559437 16:-0.678258 17:-0.574078 18:-0.0408068 19:-0.523576 20:0.666452 21:-0.376135 22:0.965508 23:-0.305851 24:-0.104201 25:0.721155 26:0.511226 27:0.666092 28:-0.400176 29:0.886946 30:0.329675 31:-0.223343 32:-0.255477 33:0.881543 34:0.377382 35:-0.796696 36:-0.791228 37:-0.409218 38:-0.399107 39:-0.938239 40:-1 41:0.151603 42:0.0703571 43:-0.773143 44:-0.805874 
-0 0.5 0 0 0 0 1:0.142585 2:-0.612489 3:-0.764086 4:-0.483361 5:-0.666342 6:-0.102796 7:0.476491 8:-0.666843 9:-0.312951 10:0.168298 11:-0.935162 12:0.37339 13:-0.474783 14:-0.668356 15:0.00559437 16:-0.678258 17:-0.574078 18:-0.0408068 19:-0.523576 20:0.666452 21:-0.376135 22:0.965508 23:-0.305851 24:-0.104201 25:0.721155 26:0.511226 27:0.666092 28:-0.400176 29:0.886946 30:0.329675 31:-0.223343 32:-0.255477 33:0.881543 34:0.377382 35:-0.796696 36:-0.791228 37:-0.409218 38:-0.399107 39:-0.938239 40:-1 41:0.151603 42:0.0703571 43:-0.773143 44:-0.805874 
-0 0.5 0 0 0 0 1:0.157837 2:-0.611186 3:-0.772258 4:-0.481405 5:-0.666295 6:-0.0919237 7:0.477188 8:-0.666631 9:-0.359818 10:0.148444 11:-0.949448 12:0.317983 13:-0.475526 14:-0.668001 15:0.0123289 16:-0.739898 17:-0.575947 18:-0.0152435 19:-0.534636 20:0.666693 21:-0.39173 22:0.964293 23:-0.289041 24:-0.138935 25:0.723689 26:0.521585 27:0.666501 28:-0.406543 29:0.837463 30:0.367654 31:-0.320114 32:-0.147952 33:0.881543 34:0.377382 35:-0.796696 36:-0.791228 37:-0.409218 38:-0.399107 39:-0.938239 40:-1 41:0.151603 42:0.0703571 43:-0.773143 44:-0.805874 
-0 0.5 0 0 0 0 1:0.157837 2:-0.611186 3:-0.772258 4:-0.481405 5:-0.666295 6:-0.0919237 7:0.477188 8:-0.666631 9:-0.359818 10:0.148444 11:-0.949448 12:0.317983 13:-0.475526 14:-0.668001 15:0.0123289 16:-0.739898 17:-0.575947 18:-0.0152435 19:-0.534636 20:0.666693 21:-0.39173 22:0.964293 23:-0.289041 24:-0.138935 25:0.723689 26:0.521585 27:0.666501 28:-0.406543 29:0.837463 30:0.367654 31:-0.320114 32:-0.147952 33:0.881543 34:0.377382 35:-0.796696 36:-0.791228 37:-0.409218 38:-0.399107 39:-0.938239 40:-1 41:0.151603 42:0.0703571 43:-0.773143 44:-0.805874 
-0 0.5 0 0 0.5 0 1:0.154057 2:-0.607536 3:-0.763947 4:-0.482882 5:-0.666383 6:-0.105417 7:0.477144 8:-0.667177 9:-0.337841 10:0.179777 11:-0.962338 12:0.330697 13:-0.475389 14:-0.669043 15:0.0332286 16:-0.763517 17:-0.532515 18:-0.026256 19:-0.579174 20:0.666152 21:-0.390579 22:0.952228 23:-0.296381 24:-0.117166 25:0.729381 26:0.566109 27:0.665712 28:-0.40425 29:0.783037 30:0.413352 31:-0.374087 32:-0.0371975 33:0.881543 34:0.377382 35:-0.796696 36:-0.791228 37:-0.409218 38:-0.399107 39:-0.938239 40:-1 41:0.151603 42:0.0703571 43:-0.773143 44:-0.805874 
-0 0.5 0 0 0 0 1:0.139873 2:-0.610058 3:-0.762774 4:-0.483442 5:-0.666553 6:-0.104402 7:0.477067 8:-0.667399 9:-0.339091 10:0.188123 11:-0.991819 12:0.303343 13:-0.475363 14:-0.66921 15:0.0338071 16:-0.74955 17:-0.660458 18:-0.020835 19:-0.546671 20:0.666 21:-0.395733 22:0.965148 23:-0.291153 24:-0.122269 25:0.722918 26:0.534518 27:0.665356 28:-0.409053 29:0.820182 30:0.367446 31:-0.305798 32:-0.107026 33:0.881543 34:0.377382 35:-0.796696 36:-0.791228 37:-0.409218 38:-0.399107 39:-0.938239 40:-1 41:0.151603 42:0.0703571 43:-0.773143 44:-0.805874 
